1.340145477595635834e-02
1.488065957359600289e-01
3.688121950814746142e-01
9.331634101138933657e-01
3.848226738172043082e-01
-4.540280432742025973e-01
4.730703487274236507e-01
6.576577060540286235e-01
4.471057653955778366e-01
1.568420444994784446e-01
-2.883896229330101257e-01
-1.601263690298197762e-01
-1.071203965175450273e-01
-6.871678443202086095e-01
7.319517994777720027e-01
-4.415198652096063436e-01
5.728500391244974871e-03
-2.746605614406608664e-01
-1.236045845363396289e-01
-1.865984645901267724e-01
-3.405983685589119569e-01
-1.582676804662167980e+00
-4.607226433691273271e-01
-4.203963824813451711e-02
3.778686174204417547e-01
-3.873279844054755561e-01
7.579078089065471868e-01
-4.400774659419591228e-01
7.475074070152647465e-01
4.544067561384560472e-01
-3.032579301182888876e-01
2.345237853219687141e-01
3.454969451664829938e-01
-4.727154707233467007e-02
8.835263414132889237e-02
-4.444615108729233488e-01
-2.632312039323914665e-01
-1.639431740911826973e-01
-1.117080831517319461e-01
-2.824367770418001466e-01
6.130099324010300499e-02
-2.374611982205517002e-01
-2.934455131793975990e-01
-2.227958218762686737e-01
3.899810534145569663e-01
2.870733403881775558e-01
4.936744347235449970e-02
8.155412852873425433e-02
-1.279725115283383841e-01
7.722838483963448408e-03
-3.252455115322659684e-02
-3.505136320580627962e-01
1.156201545261637403e-01
-4.684473706209874577e-01
-1.518237154720270335e-02
-3.748170805829348362e-01
-9.742232810543889621e-02
4.069598250219897406e-01
-2.442261888469762499e-01
-2.662634586530349817e-02
3.646319264233758850e-01
-1.793813646490616531e-01
1.887183695931877458e-01
-6.641345203862727975e-02
-1.282496783521454020e+00
-9.120948915789282019e-01
-1.012947652812637100e+00
-1.338277014398636888e+00
-8.164777080131342402e-01
-7.998432028588778886e-01
-1.291012654572132989e+00
-1.022785026230280891e+00
-9.295860305647367650e-01
-8.147383467174523775e-01
