-9.191890792139362221e-02 3.023247238996333575e-02 7.737192743483774227e-02 -3.988827025274008058e-03 2.926247568680047373e-02 -5.277003990737751116e-02 -1.500661014734178816e-02 7.304665546609380444e-02 -3.751375335541182188e-02 -6.346777130077738138e-02 7.859835835530112891e-02 -1.820431182177441320e-01 -1.453270187324641749e-01 -5.891857162187617153e-02 1.448745286739573368e-01 -1.300796748293600869e-01 -7.512427416577519002e-02 -9.109912511451200012e-02 -5.114951407799500638e-02 -1.491919821554999193e-01 1.307143135523560762e-01 4.667880743324872433e-02 2.988182762961365257e-02 -3.953361606687068319e-02 7.818465014256528733e-02 8.831958729496802718e-02 8.302609634945118389e-02 9.451097996598444018e-02 2.798162678331410011e-03 1.217197477607334932e-01 -1.806461676459075391e-02 -1.113355278676045335e-01 -3.926845495533801828e-02 1.126963343434358999e-01 -9.726932638237405226e-02 3.189121459239956102e-02 5.651158800036475832e-02 -1.137542418787022142e-01 -7.787731654143678628e-02 -1.938041981805028180e-01 4.056559889563791932e-02 3.823302032796038058e-02 1.656752617205111688e-01 1.388519169177007684e-01 -6.574950895907819004e-02 -9.141243907050283779e-02 -1.173457922523916779e-03 9.264399579186632233e-03 1.529888934104324805e-01 1.190987666319391208e-01 -9.878463782743007737e-02 -5.483366756027922145e-02 -6.659537250234691397e-02 -3.081548893228272176e-02 9.708961882723070314e-02 5.251300338840925348e-03 -1.196680576522199391e-01 -1.626638861155114135e-01 1.028574200766892432e-01 -3.659986075402451439e-02 -1.133494281948449617e-01 2.400218167389616547e-02 5.939334807907593883e-02 1.315957878699356709e-01 -2.583411038129930504e-02 -2.243449543674272406e-02 1.894432753325286378e-01 9.829596154895560434e-02 1.582336243219295835e-01 1.828764326411988772e-01 1.158260159357531738e-01 -8.744092523793538241e-02 1.721018425190673218e-01 4.620613407260295430e-02 2.807506540000918593e-01 1.264765929269558165e-01 3.828303485574106185e-02 1.899418594525806858e-01 1.180967688409672728e-01 3.636125081322565903e-03 -3.506435886937284835e-02 -1.009949771014393011e-01 -6.375804098658846564e-02 -2.556908293622430287e-02 5.723555781451167279e-02 -8.795378416210559991e-02 -5.119491973029036136e-03 1.441515364023109869e-01 3.070321017202934724e-02 1.895186231604247540e-01 1.933331766837353138e-01 -4.831857508313509159e-02 3.155009035947355933e-01 2.553998095886495512e-01 1.066562353546163799e-01 2.329878591995890869e-01 2.563229926690035465e-01 -1.054097133353860682e-01 2.733494706807602578e-02 5.829166941665074250e-04 -7.741278872039246417e-02 1.998776323152610113e-01 2.543218269476020810e-01 2.974957828065487586e-01 2.213307471681484617e-01 1.574712257761199108e-01 2.926235322527336383e-02 1.851884092700138984e-01 1.034406934017156054e-01 6.778015034715771658e-02 -1.026588941244459124e-01 -1.025105860355725318e-01 -1.111770658340307388e-02 6.569812145292436290e-02 1.348838328551143877e-02 -3.227325776454610939e-01 5.920288072878607255e-02 6.864539139044299743e-02 4.312029494045090811e-02 2.323985403299135000e-02 1.326746266638216543e-01 3.627752748440870451e-02 1.411314904529752667e-01 1.217456708475292415e-01 -2.002073913018673906e-02 -3.476124042016869031e-02 2.663464242112286232e-02 1.677056721658825855e-01 -6.665911530341740721e-02 -9.099835395881182565e-02 1.159099963234722780e-01 1.966117921522526346e-01 -9.459228475396047608e-02 1.641184076369805733e-01 2.555816697887068889e-01 3.661601109304622459e-01 4.220622814149298935e-02 -1.052555723310360201e-02 2.212065575120290006e-01 9.037225698521353032e-03 4.815118168409271426e-02 -1.781049319476831969e-02 -7.163248259396205742e-02 -1.354372050042700615e-01 -6.348488837324074707e-02 1.797203527098793774e-01 1.432397571949550474e-01 1.803627093878743537e-01 2.188377500977160828e-01 3.510890863830522513e-01 7.830325760365292043e-02 2.788516911013130262e-01 -1.018707000109933536e-01 -1.575263912901055385e-01 -2.509575894577695254e-01 -1.418429156067375074e-01 -1.708904570967924585e-01 -4.330193721744255569e-02 -3.274312795167393375e-01 -6.541367487789531178e-03 1.754195506207572031e-01 2.975107329965144820e-01 3.498717409309412552e-01 2.539535746236992186e-01 1.391011125183428954e-01 1.078500811473715598e-02 1.196294415381286141e-01 -1.118535087494847320e-02 -2.291800270395230165e-03 -4.250570666323617852e-02 -8.945837359698444527e-03 -6.834445727591159647e-02 5.993358121427287688e-02 -1.378916786928246303e-03 4.625010541864423702e-02 1.757007785511975340e-01 3.137828570865220934e-01 3.374673255230491997e-01 1.133352310039067723e-01 3.611093476924108758e-01 -1.792609597927053225e-02 9.720760874141372299e-02 2.673611360139251381e-01 1.388916392183021653e-01 4.069129788126681913e-01 2.670529576535063954e-01 7.440955106375909782e-04 -2.519119716692111988e-01 1.474593867121187785e-01 9.430174125293695753e-02 7.068039703240704130e-02 2.555286189636921113e-01 8.953668768810697787e-02 8.834189317210758632e-03 -4.740798119161217239e-02 7.391414826655907933e-02 4.256763566899707946e-02 6.238850000410937208e-02 -1.590017446020212293e-03 -2.913760637563304542e-02 1.488389420295394699e-02 1.546799973972469988e-01 2.766712839166760030e-01 1.833145259953890271e-01 3.218348639812862455e-01 3.959135223497898814e-01 1.449824755764236306e-01 1.217737277713420302e-01 2.577721920961270619e-02 1.807666676830138597e-01 2.312634123566287281e-01 3.546507373711298428e-01 1.298641343651324720e-01 4.010966220815394556e-01 1.396747353330140828e-01 -1.167826012474091346e-01 -2.890664513433751637e-01 -8.642540541604469551e-02 -7.469654228763187263e-03 1.991201086592343517e-01 -1.195193922251074070e-01 -1.141793926396984377e-01 6.960043691118036890e-02 1.889866286052994393e-01 1.360298908291452946e-01 -5.058504121478584609e-02 -8.060105768455393116e-02 -7.507681272862473665e-02 1.330931773682820229e-01 1.135648729457547357e-01 2.224355014658042362e-01 1.109569720136621002e-01 -6.928079002734348346e-02 3.549637226593223005e-01 -8.168574407762420678e-03 -8.911752918512667876e-02 -1.189141010951138243e-02 -2.359111423201905033e-01 9.336396947905871435e-02 -9.296831355207137160e-02 -1.661140711844507900e-01 -1.403526768026503446e-01 -4.799176845454303786e-01 -9.740566560996329060e-02 -7.888189437115775693e-01 -2.357991557445551500e-01 1.932944833425901121e-01 6.970196378949455873e-02 -1.665871068572903069e-01 1.070900994914108784e-01 2.900726134245537602e-01 -1.040281872285537092e-03 -2.037612231684583497e-01 -1.561257059884259835e-01 -1.510997328030091146e-02 -1.861447279420091472e-01 6.657254869981458871e-03 -1.387973030291227983e-01 -4.694242320997410456e-02 -6.264530504869508798e-02 -7.175145007674246789e-02 7.903849263185876162e-02 -7.033130659224431924e-02 -2.411547420311767609e-01 -6.075402002116370159e-01 -1.435561522829974235e-01 -8.774611595476031201e-02 -6.363106235762540086e-01 -1.085557397269030000e+00 -9.088330070774877090e-01 -6.662505216187941670e-01 -1.754746175103871209e-01 -3.825037927217488920e-01 -5.482594348146277996e-01 -1.853906811769758800e-01 -8.402830379390473226e-02 -2.857250140244218389e-02 -2.158832406356424316e-02 -1.414194519385236215e-01 3.045794386293479948e-03 -5.457304370538067738e-03 5.162744298574353102e-02 -1.654655200979044533e-02 -3.770140012885550007e-01 -9.330677160045601493e-02 -1.303864930025979973e-01 6.659281366080350983e-02 3.033288638719319405e-02 -3.529299973621248254e-01 -3.277019655852784763e-01 -2.110994767023794960e-01 -2.200131011505970791e-01 -6.527425898813076222e-01 -7.690890549146865984e-01 -6.654924311792302927e-01 -5.395200644381664690e-01 -8.364150377482477694e-01 -6.580970623085673488e-01 -5.255870808323436227e-01 -4.636571559661595843e-01 -5.336935048729182229e-01 -3.595985489839677585e-01 -2.625254078289211979e-01 -2.957015979853070409e-01 -8.618421326117885195e-02 4.684919543302048378e-02 3.558863338188759246e-02 -9.502690842195810061e-02 -1.328496615565265826e-01 4.012499407475204893e-02 1.486658262494656296e-02 -2.493805037437764049e-01 -1.746647833921217419e-01 -2.359216814587142275e-01 1.793649058294930487e-01 -2.262554033431164180e-01 -5.172629974424697297e-01 -1.340030216381344896e-01 -5.829713079695333228e-02 -3.390711213192691698e-02 -6.041800642510962716e-01 -8.864163227514749721e-01 -2.911016464666771886e-01 1.300092831095066293e-01 1.696564847474791443e-02 -7.258636216772221261e-02 -2.531438818346460340e-01 -4.821880717980521203e-01 -6.887282019462144245e-01 -5.838695470948600530e-01 -2.704341918885411200e-03 -3.209817702002041306e-01 -2.540449886936855250e-01 2.601199061453648986e-02 1.130579401106115711e-01 4.848287418882130106e-02 -1.087646153037893221e-01 -7.276472030706307437e-02 5.290609177579945477e-02 -1.871189248309588493e-01 5.946792451687362563e-02 -1.704995462673339068e-01 -2.851590251791360497e-01 -3.560552969619601993e-01 -6.346002867564721761e-01 -4.388444702363633043e-01 7.702036687308325136e-02 1.918561834739251556e-02 -6.340860044049068112e-01 -2.682409154833778619e-01 3.714273824509399247e-01 8.451309451222548397e-01 3.878949300884141360e-01 3.280507973507004738e-01 -2.328209449806444564e-01 -6.511153084624747567e-02 -3.227644431888225807e-01 -1.079156824416303700e-01 -1.430072628660504497e-01 -1.743040459550578847e-01 -2.061526702307506509e-01 5.113039278571293589e-02 9.784238936070398240e-02 8.131513499176355741e-02 -1.464948933230582895e-01 4.009751340193678376e-02 9.603633552145678098e-02 2.652801092487063958e-02 7.979351756404455542e-02 8.515233017085194894e-03 -2.339708505642223435e-01 -5.134412848694803744e-01 -2.937220569821427096e-01 -2.692509717884840614e-01 -2.562004954219488928e-01 -2.594274548808098713e-01 -2.455041037382560409e-01 3.081484744633984918e-01 9.951596856167054250e-01 1.539537154849724976e+00 6.118618522244035907e-01 2.313425452086502188e-01 1.235595373456995286e-02 3.675630494584238850e-01 4.742117697017227962e-01 9.173155345485427270e-02 -1.043685931711276771e-01 5.735463499524887793e-02 -1.322037341637619656e-01 2.309832621906447725e-01 6.045292892400699197e-02 1.466711239593212167e-02 -4.461057262067287532e-02 9.309416090172311503e-03 -1.411472957065299516e-01 -2.072227208606975540e-02 1.169887561711442231e-01 2.538784178540346437e-01 6.543116230664442270e-04 -1.721287797300470046e-01 -2.677200207888440486e-01 -4.928973620798970945e-02 2.375700240128266263e-02 -2.085522125333691135e-01 -2.239695119587755134e-01 4.303179997092658748e-01 8.921955903882616834e-01 7.127029514774320118e-01 7.503762927186351517e-01 3.222846666508635827e-01 3.583781608286009668e-01 1.994663070596373045e-01 -1.202062416201664548e-02 -1.695273605423836816e-01 -1.712504871762707548e-01 -3.268835278082303786e-01 -3.759272915622421246e-02 -1.707475694484818143e-03 7.661074682155351312e-02 1.243433391242761005e-01 -1.681558532033502751e-01 -1.160316315073032789e-01 -1.331676159024096362e-01 -1.578999219907731566e-01 3.223281412073538202e-03 3.141297297586991000e-02 1.373296745686349296e-01 -1.173997748645640334e-02 2.847392935502257583e-01 3.533375896392418891e-01 2.780803256532753953e-01 1.645847599511458537e-01 3.844273478163208191e-01 1.107782891312612650e+00 1.015957764000522401e+00 5.032638870428022271e-01 6.413932894673001206e-01 2.980602099098306201e-01 3.183122535412848952e-01 7.304062440683913027e-02 -1.931212143405361126e-01 -1.159746489641841211e-01 -1.128015914838999267e-01 -4.188528010712539440e-01 -1.908192675365456004e-01 3.066783495776041479e-01 2.315167011639558334e-02 -1.847173707680507468e-02 -2.367836050375005802e-02 8.744049765643399641e-02 1.940844784304456561e-01 -1.757851049046597241e-03 -6.498916369229523760e-02 -1.061843221865616249e-01 -1.872312168316946357e-01 -1.085329798413037748e-02 4.078826984053721683e-01 2.843627667973176454e-01 1.534963046181078428e-01 5.931304385804549995e-01 7.245870239143186176e-01 8.429767503269288698e-01 7.828662513547852697e-01 8.009084106931275704e-01 7.798898230150667077e-01 2.622867510415016201e-01 3.662010247768329174e-01 2.626773313484231931e-01 -1.968594306421679319e-01 -1.555090727425392227e-01 -1.186940038869315900e-01 6.596681211156754654e-02 5.012526795069771612e-02 1.883134595100096620e-01 1.263164513079000073e-01 5.589621383159408541e-02 -1.573188819256454984e-01 5.268338937909020428e-03 5.348442273223107807e-02 4.988048438734515172e-02 -1.036631535893680622e-01 1.206221264474794004e-02 -4.961133262516616294e-02 3.151496044697057464e-01 2.268864196007995271e-01 6.351414427492787507e-01 1.400500265958091670e-02 2.437753604183965916e-01 6.332294245935156107e-01 6.277175763480649096e-01 7.359470006670117970e-01 5.432845421851663081e-01 7.111482520992452594e-01 -3.257247472420182199e-01 3.034894585792711347e-02 1.317703670365051039e-01 9.619843585869988778e-02 2.145564494400904187e-01 -1.964794519029998965e-01 7.726999392171628178e-02 5.637403655186655482e-02 7.930921539403792964e-02 -6.565335602392172176e-02 6.418810834621216377e-02 -1.507789458242045633e-01 -4.923116519056425222e-02 -2.062791767407046450e-01 1.999394099850386186e-01 -5.674633775325621521e-02 -1.105022959202262706e-01 2.465581665046905346e-01 1.999933761012281097e-01 -2.038816106026110908e-01 1.768819934193430476e-01 -3.148562209524313760e-02 2.083505718944365370e-01 3.297289329751182385e-01 6.360461406243196336e-01 3.603252033971709456e-01 3.476349768138839447e-01 3.595928963629110298e-01 7.513914468340557318e-02 -1.407484170244407695e-01 2.372335846244029434e-01 9.794785165766212165e-02 3.985720132757746836e-01 -3.742999320916847728e-01 8.519864568740301292e-02 2.594567672416966397e-01 4.420290449959690671e-02 9.598152272713703081e-02 3.651096232814707992e-02 1.760031842605288555e-01 1.976429773497709319e-02 -1.220211662782563350e-01 -3.944142841225940777e-02 -1.262026886945655235e-01 -8.418222964879665260e-02 2.403558385595103153e-01 -2.524524656388603683e-01 -1.213828615816423540e-01 1.362601002044123988e-01 3.289382804949357586e-02 4.879998990148640137e-02 1.492771174752136609e-01 3.760243071501437884e-01 1.894155171918629199e-01 9.185967036228141758e-02 4.836098677419763958e-01 7.893427817716147654e-02 9.896326706540661822e-02 1.419213323669073767e-01 4.217943860400815148e-01 3.095390335260531089e-01 4.992575608388229169e-02 3.369725726981534497e-02 1.106021857995676122e-01 -6.870164159199444211e-03 1.556372091181431327e-01 -1.030372780390575310e-02 1.159530700163180494e-01 1.168169296929865396e-02 -4.076761710365170432e-02 1.613253741444578906e-02 -1.070034191994989475e-01 -2.337606940381013187e-01 1.436021348183761925e-01 -1.743204652323208648e-01 -2.166192438528336262e-01 1.028685096525557285e-01 5.224509347708789636e-02 -3.308240309417672664e-01 -2.390833765237555253e-01 -2.447015138275927537e-01 -2.625443175633613846e-01 -7.270286645563793504e-02 1.728923382650938700e-01 -3.954050355836313119e-02 2.913902687938931813e-01 2.038537338086190975e-01 3.367131226334399985e-01 6.897890765980246863e-02 5.415327412579616639e-02 1.425941097902243271e-01 -1.897641213196120946e-01 1.637664816520656708e-01 -2.509481843913720193e-03 -4.558965926953821579e-02 1.049391168861160822e-01 1.579431242502497279e-01 1.683800087138441481e-02 2.236179802218869750e-02 -1.591718217279318795e-02 1.805290921454099501e-02 1.033583428041877361e-01 1.361663234557400348e-01 1.961715113498676832e-01 -8.176134233622496528e-02 -4.563401785982593717e-01 -4.060599276477552255e-01 -3.145382827443722884e-01 -1.489943901153515937e-01 -8.144212058844942093e-02 -5.197511550636409183e-02 3.997565771341330398e-01 -1.815206894748849498e-01 1.676326105717196036e-01 1.143244773135273784e-01 2.575748606488684755e-01 1.537426317097976558e-01 1.018854907297585821e-01 2.293193078306411670e-02 2.345383373639060159e-02 -3.035580486860117028e-02 -2.478996346369913631e-02 -9.973609890907526865e-02 6.394845386865781510e-04 6.663899456222077688e-02 -6.779485789145360541e-02 -2.983695519604361132e-04 1.381742161410991210e-01 2.510358181062475325e-01 2.424015219963835677e-01 -1.182516343660542368e-01 4.856600725628314186e-02 -9.480989251975041610e-02 -2.149376640490306134e-01 -2.956357016961394871e-02 -2.135842926955531518e-01 -1.133486648514113633e-02 -2.258630326042895559e-03 9.909684321561464115e-02 1.879911254467580284e-01 -8.198822555828498559e-02 2.125903891114417632e-01 1.450344401339037081e-01 2.816887673326986530e-01 4.974087363500889758e-01 2.453993653924372298e-01 9.379766911796671991e-02 7.390486657819007876e-02 -8.095620981506850000e-02 -4.565470553347978494e-02 7.129997239309815438e-02 4.675350719658703802e-02 -2.357946718243867507e-02 -2.092968548705902848e-02 6.158146107977900685e-02 1.285318602147812184e-01 1.790725487582342512e-02 2.535559824935210704e-01 1.848389603129458325e-01 3.325986881352286928e-01 1.287214637133884676e-01 4.112909277928874369e-02 3.695695349930940704e-02 -3.912892780356045930e-01 2.203162624544099946e-01 1.503322124613038491e-01 -1.449479954606208154e-01 2.073510794190782519e-02 -1.534854842047216339e-01 2.305969285255299595e-01 1.124103728271236974e-01 4.801936777715110072e-01 4.875369201107697670e-01 2.164604227434898387e-01 3.658852364168342641e-02 -1.256860607820170783e-01 1.533980746348318977e-02 5.947426931584453430e-02 -5.716284689479103620e-02 5.119832304730940337e-02 -6.544923812794543883e-02 8.243595090170975637e-02 2.933347282750059862e-02 8.825130136795619751e-02 -6.947702216261970876e-02 2.423474826577563246e-01 5.381101540135074801e-02 3.201492150673208165e-02 8.670076008535065881e-02 3.718722553712853346e-02 6.801413013977013200e-02 6.902729896203133042e-02 4.000657137482788173e-01 5.281504616540746294e-02 2.133211721513393333e-01 2.581257770954826780e-01 -2.863648066960620686e-01 -1.891158276514629533e-01 7.086966650240500432e-02 2.788828179398094576e-01 2.334994172879133467e-01 1.021360037985508395e-01 -1.619006254962478686e-01 1.039589747409505605e-02 -4.237528537815715007e-02 4.260256372121816459e-02 -1.416504519628898617e-01 3.848535362091021206e-02 1.469291065908070182e-01 9.704144962637357985e-02 1.276247669277443264e-01 -1.754707562650045238e-01 5.220014266150724280e-02 5.649221541222602255e-02 -3.294315533726743100e-02 -2.228863660216294229e-01 -4.691952434356554819e-02 2.096797749635203878e-01 3.713662333497455004e-01 2.897869944650993124e-01 2.068310222468532633e-01 8.694767181431978242e-02 8.999287673030396950e-02 -3.247473521090678550e-01 -4.980702633167531923e-01 -2.918787673546052730e-02 -3.423900537167219316e-01 9.578894413590886836e-02 4.287663807952327155e-02 6.883111030766549121e-02 4.580187763484899754e-04 9.785693784923721328e-02 -6.011744530069807607e-02 -8.243782821864102661e-03 -4.599421057109844696e-02 1.090504701477709448e-01 1.635405680611219659e-01 7.218176691735367356e-02 -6.204937851179029989e-02 8.205682484374419994e-02 -1.532148457315357648e-01 -3.166767320866901991e-02 4.579425306128939027e-02 1.113176030636815750e-01 1.930210305125902581e-01 -6.482146877679222097e-02 1.490111252482914372e-01 -9.682729592785123407e-02 -2.139542300309514311e-01 -2.509190233900686073e-01 -2.137932240646666093e-01 -3.894321962759138556e-01 -3.164047883330807776e-01 -6.435005091683687617e-02 -2.079005837092358366e-01 -1.241035406479731006e-02 1.593972659032655281e-01 3.486485397580052492e-02 1.276875536148184935e-02 -4.996234239521340353e-02 8.602584549226670319e-02 -5.263897111497402304e-02 1.308069102008921625e-01 2.282890134647908020e-02 -2.273636575590092801e-01 -2.295719838035109595e-02 -1.575322903525707904e-03 1.187644200970175978e-01 6.507164626418890374e-02 1.052451708882838899e-01 4.194402941510230048e-02 -9.142482015212922974e-02 1.940181432758878721e-01 -9.095344724368326084e-02 -1.273716704969368556e-02 -1.786634055383161737e-02 -2.066345787863621830e-01 -1.264534200346628390e-01 -1.598701611814509413e-02 -4.986538958784236114e-02 -9.715685635775375695e-02 7.311423675150439949e-02 -2.824977771622219636e-02 4.803902491565876370e-02 1.674348124628230738e-01 7.947580802903168873e-02 -3.425662478568145680e-02 -7.664717447078117640e-02 -1.383616442068597296e-01 -1.555022114939868041e-02 1.065578023817598807e-01
6.355380697862128558e-02 -1.270040924566519791e-01 -4.276457154957389456e-02 -2.131507576226183628e-02 1.576356443733547830e-01 -6.589652164030422588e-02 -5.895310662910435706e-02 -5.436456294367565667e-02 -1.036262390425371216e-01 -8.269963274008966525e-02 2.871342697296135060e-02 -7.090157068243118765e-04 -1.456454388174608094e-01 -1.544704490107358108e-01 -2.137673304653152709e-02 1.435642381403384460e-01 4.330180715989196544e-02 -1.165552033027596190e-02 -1.323195896450356929e-02 -1.305042459021888146e-01 2.836374629322462038e-02 3.961915358197112824e-02 -4.909011509803720696e-02 -1.318430331469750139e-01 -8.739518084131371600e-02 2.086534784287885358e-01 7.826684496952136111e-03 5.739517412252345685e-02 1.688780437393096537e-02 -1.703663608045760947e-01 -1.874924088606958958e-02 9.701225293765340651e-02 -1.457794986099155213e-02 3.707437668024218119e-02 1.151735187447930353e-01 -1.272861323563497654e-02 -4.164470930342614036e-02 1.308472098179949139e-01 1.538678201159808245e-01 -2.773709062480954612e-01 6.819384771729479489e-02 1.654038490772271816e-02 1.596995875929481043e-02 -5.905306687660095283e-02 -1.774351018392700263e-01 8.010906820643922538e-03 -1.641642675108072602e-01 -4.543803874195494891e-02 2.052348454309372017e-01 -7.377856213460305679e-02 -1.570871972968920782e-02 -1.360161566594921823e-01 3.497001513236502879e-02 4.502847494419750726e-04 -3.512694803020255385e-02 4.393224844832255283e-02 2.129545152167735267e-01 -2.730450813203811333e-01 -1.644436006398057419e-03 -6.272992863893547821e-02 3.552257248061115556e-03 2.672387357191516669e-02 -8.334988068809020753e-03 -1.500285265096863718e-01 1.375641052332733372e-01 1.535279156231428299e-01 2.869613922458695843e-01 3.092186097049019478e-01 2.973381396720143899e-01 3.238522081955145793e-01 1.210938946824315632e-01 6.132295087182135923e-02 1.541346249492943354e-01 2.213165031839271248e-03 -6.250677758886996616e-02 -1.930267223652699926e-01 3.406013048238557515e-03 9.347202845284158235e-02 1.033173476874661573e-01 3.646658786661967355e-02 -5.045482655015215250e-03 1.114442241475133155e-01 -4.258700899095257952e-02 -1.698007120440941584e-02 -1.604974276402076905e-02 -3.864358502942407542e-02 -1.426544581333100692e-01 3.637159363931075778e-02 9.351587872743484520e-02 1.206339506819040647e-01 1.062902391273449175e-02 1.076918924940521369e-02 2.704182451876860349e-01 3.940681200662616290e-01 4.590758844263902461e-01 4.120084764672676814e-01 2.492165183661589900e-01 2.154181137282445979e-01 3.604892297170797510e-02 -8.648201670463601110e-02 -2.181682769547774459e-01 7.968344902875498792e-02 1.406220588990453151e-02 -2.294583061921988409e-02 9.177157168252906422e-03 2.020421747061047213e-01 1.153951072545873202e-01 -5.576052424831647730e-02 -1.237316733929567092e-01 1.191202646720105895e-01 8.018187242057887854e-02 5.748650093877031436e-02 1.192485700782712349e-01 -2.156479189533026808e-02 1.378094908301819022e-01 1.003311506467706310e-01 8.676042457037822647e-03 8.791680913099941819e-02 -8.419900393257028631e-03 5.338336926037751118e-02 1.191532416879835798e-01 4.009543757143224640e-01 1.581091934171403313e-01 -5.075752621825418281e-02 -1.526733886626972792e-01 -3.619004405306308070e-01 -3.973903357331017017e-02 -4.107946797844214820e-02 -1.597387513164130191e-01 3.442262341306089324e-01 2.399448852280567090e-01 2.718997561431840126e-01 5.930015983419750780e-02 -1.887815717565288764e-01 -1.499830359940763080e-01 -2.836147570341532864e-01 -7.664785315967850843e-02 -1.770671078175143909e-01 -1.286912101460221947e-02 2.139244187134973704e-02 -1.060550047798289042e-01 -1.076548524596104423e-01 4.626626441764280367e-02 6.420971867819492973e-02 4.874089113548753932e-02 -2.260251397163833831e-01 6.577449960932482687e-02 -1.678455777127629833e-01 3.466118381348586297e-01 1.604247227473138138e-01 2.570346826705689480e-01 -3.323880468775440578e-02 -1.004855896730248999e-01 1.584664412119109189e-01 1.258712432819172056e-01 4.461669994567461495e-01 4.562540439202201759e-01 4.312719732431480879e-01 3.181986216844180371e-01 1.565747004148621835e-01 9.545115509632950968e-02 1.128849751044199053e-02 -3.577229317527537700e-01 -1.469875928989849423e-01 -5.887056546535682049e-03 -1.177205864977319411e-01 -1.106185953558851270e-01 -2.243885512908400104e-01 -2.502128592270399521e-01 -8.167130060152461013e-02 5.121449479134206756e-02 -4.255831767864596410e-02 -4.755713178679288333e-02 -1.097027294948914183e-01 -1.939411233512491894e-02 2.399340103636510846e-01 2.433354458555236910e-01 6.759988658667887007e-02 2.978586255565459154e-02 -8.117465424777080274e-02 1.523340114975191562e-01 3.160773334774179266e-02 3.365071209596571800e-01 4.084022687947518881e-01 -5.399008776186718650e-02 -1.097849380109303108e-01 -1.882831393417103982e-01 -2.106304436515294976e-01 -1.497110897742816304e-01 -9.515692219112982519e-02 -3.675499653729953908e-01 -4.165395144439697495e-01 -2.739957633418878546e-01 -2.712441292141256621e-01 3.018539780964693900e-02 2.504149317293185087e-02 -5.073805925473421491e-02 3.093315630706042207e-02 -5.355137389303600559e-02 3.432264191540988080e-02 -1.860918284627695665e-02 1.619549946963667608e-01 2.308732486456878397e-01 3.030586284673501551e-01 1.849432245768651284e-01 -2.188875320686996806e-01 2.198201036312789347e-01 1.105961149604757915e-01 1.884051774313394989e-01 1.103011904029358760e-02 -7.360421818416580664e-02 2.611537832874122333e-01 -3.094488034405551424e-01 -4.667951720608853883e-01 -5.487926650319798760e-01 -8.619777460935892366e-01 -8.443697172552990793e-01 -3.898078222381050617e-01 -2.781878804541511596e-01 -3.306138573980096362e-01 -2.799677117884095123e-01 -2.869115840552973265e-02 -3.456797838360878977e-02 -1.398199455863486096e-01 -8.463799925961417933e-03 -4.374637769264660275e-02 -4.463568434422059139e-02 -4.219730335531796800e-02 -4.719084166184061430e-02 8.109836155846168737e-02 1.495096294174967089e-01 2.741870511386226839e-02 2.375565910199479991e-01 -7.476376731112753526e-02 9.630430387820040905e-02 2.954827114478391081e-01 1.960802001980536391e-01 -1.300929130724809146e-01 -1.743017167290843994e-01 -8.153366645734607676e-01 -6.511768872600374181e-01 -8.513894152010285099e-01 -8.733918654861115849e-01 -9.430945891223085908e-01 -7.184024105802295779e-01 -5.024803906931381015e-01 -2.157127936335577756e-01 -2.742900879244825618e-01 -2.558252684528485865e-01 -1.141241592167121371e-01 -2.174561808659828122e-01 -4.022274780353896767e-02 -1.182314248462012496e-01 2.355274102091494196e-02 1.791180463231612646e-02 3.219969064614681964e-02 7.208722038240969465e-02 1.819274157955309834e-01 -7.893250093977542681e-02 -7.358322075893392305e-04 2.053581426877420513e-01 4.289101771990611600e-01 1.702316667608500759e-03 1.864613918074142229e-01 2.728509827528266540e-01 2.587058254023478013e-02 -2.989139828986498992e-01 -9.062529550037330406e-01 -9.950709595736125790e-01 -4.775439419535049135e-01 -5.797022624096114241e-01 -5.870060736660795975e-01 -4.242039506517373826e-01 -1.416444267663265755e-01 -4.718171872544772716e-02 6.041266468287165292e-02 7.969127804810209603e-02 -2.123216957077229128e-01 1.126447483845430392e-01 -4.817460262079197031e-02 -9.590417847077914448e-02 1.053193616712004566e-01 -1.317771429817070905e-01 -2.186964996230197356e-01 -1.623318890323959263e-01 -6.525888988790340926e-03 -5.210336388979752709e-02 1.327883425782697482e-03 2.849645034890135320e-01 4.582099378612965873e-02 -2.613789356073707715e-02 -2.462344730578291604e-02 4.248913595588382081e-02 2.519453786549613605e-01 -1.453960219847932611e-01 -1.584715102741503234e-01 -2.892116790133258397e-01 -2.148431128902011100e-01 -1.938854046443549140e-01 5.545811491113163127e-02 -1.029306479723864076e-01 2.675248188990867609e-02 1.253981102385013646e-01 1.530079095929226529e-01 6.546948409601927032e-02 3.181614780598353981e-02 -9.744349423444220466e-04 2.431969125747934432e-02 -4.414973150759474857e-02 1.561682814650391382e-01 4.632341040162021167e-02 -1.595838510995259973e-01 -9.765597116422061741e-02 -3.453308963439953583e-02 2.110341609278229211e-02 -4.604323888592331410e-02 -2.304060345999247583e-01 -1.937776620878284284e-01 -1.900943239677728436e-01 -5.251319777797035515e-01 -3.415911003983798100e-01 1.396523144325197696e-01 1.745043014052503894e-01 -1.525101490257960990e-01 -4.227991882667055806e-02 1.210611922852039696e-01 1.444319387536506238e-01 2.266677935552607326e-01 -2.540435990124049193e-01 1.336332900953120517e-01 2.665645297185131324e-01 3.808770962641571667e-01 2.222134719846513562e-01 3.827356352064655715e-02 -5.363587861462718043e-02 6.685403953179423764e-02 1.797243256702134584e-01 -2.065549789247171641e-02 2.696456038247138087e-01 -9.051395373263462774e-02 2.341438818917956823e-03 -1.942392771407023822e-01 8.010351075419999689e-02 2.635693861901922119e-01 -2.073256159996869630e-01 9.517112529911232396e-03 -3.670410369993652999e-01 -2.673433538373199969e-01 -2.507760805387936887e-01 -9.018032009421456108e-02 -2.141107526672554329e-01 -1.645066905520655709e-01 1.101446467420049008e-01 1.439963106562666961e-01 1.905667171324584575e-01 -2.421332202325414407e-02 -2.668627752907125061e-01 -3.655490748393772082e-02 3.375660645340110011e-01 6.678811620665758841e-01 3.648460376710454534e-01 4.880806364051715196e-02 -1.036296765403305203e-01 -1.865664574164314915e-02 -2.621072676631324913e-02 -1.273553740661969302e-01 -8.584437799068055097e-02 9.927541204541059927e-02 5.003336384117537672e-02 2.325997499324635454e-01 -6.043158379432473151e-03 2.310928929600681858e-01 -2.283363452936479632e-01 -1.311808371610752588e-01 -1.169435491021883489e-01 -4.854793484966835049e-02 -2.193546188430610944e-01 -9.503975800048052036e-02 -3.975704806466825447e-01 -4.963270971104560836e-01 -9.541966894274502009e-02 5.359827373094232933e-02 -9.264467070423444695e-02 3.250443645532060111e-01 -3.872522748184229480e-01 -4.279900867219817162e-02 3.097648276142777046e-01 4.364036082434821218e-01 2.838341357368793227e-01 -2.009471250505736606e-01 4.561817255543236874e-03 1.715911672381525144e-01 -1.579945397636510138e-02 -1.185856864743829731e-01 1.015133093422448778e-02 2.166263154285347908e-02 -1.589409483206421780e-01 -1.111640910877586402e-02 9.858557523935579381e-03 -3.620516979602787511e-01 -1.206659974652365963e-01 -5.011608315902981586e-02 -1.646913619100023041e-01 -5.117113485920014027e-01 -5.655283756239769533e-01 -5.184704485562773302e-01 -1.500506580291704750e-01 -1.726126846680008098e-01 -2.053893401105399974e-01 -2.293741323320723502e-01 2.062492176412003830e-01 -2.809203461248478972e-01 2.916646449545124212e-02 6.048166879451287448e-02 1.583704990764712717e-01 1.940467997325629190e-01 1.191139524530352434e-01 -1.341544564800608852e-01 -1.830076923524873514e-02 -3.703561498314065104e-03 -1.026644101945883014e-01 -4.686980291791888881e-02 -2.263024654407501390e-01 -6.980954984405680908e-02 -1.245868470125874872e-01 -1.296338918043400679e-01 -2.347201046635982724e-01 -1.200515032422266870e-01 2.151955965815978977e-01 5.957848604204333404e-02 -2.990650520962489026e-02 -2.856900863277949121e-01 -2.187568998146996180e-01 -2.100126050668445765e-01 2.179009455874225398e-01 3.490463149641024471e-03 1.325502543673723888e-01 -2.379474377347298164e-01 -2.186508986366866580e-01 -3.740367251972148959e-03 9.491642659951388117e-02 8.832771154914856315e-02 -7.650589208871460233e-03 -6.914077106388756555e-02 1.962229179604560447e-01 3.483882419780025552e-01 -3.840507607752383784e-02 2.111032555309801384e-01 -3.268940980996742213e-02 -2.081633179603047459e-02 -7.005582248469287288e-02 -6.214656220085473803e-02 1.675167261199319094e-02 -1.025240564496473217e-01 -2.634805732269543399e-01 7.199093924865453478e-03 -2.567941260407175519e-01 -1.322988478852769878e-01 -6.497225045435206514e-02 -3.784925900865736270e-02 -5.281648470479909374e-01 2.735907374262925296e-01 1.834764541209883693e-01 3.968898922292357079e-01 1.301777636008417671e-01 -4.611846168287258019e-01 -2.627523946176363312e-01 1.886409780829339730e-02 1.824305786524531292e-01 -1.477917300854563742e-01 -1.294899299706743778e-01 -1.159851368866122029e-01 1.754685601399348371e-01 1.189596031306841967e-01 9.394402282361957734e-02 6.824062294041605137e-02 -1.504609408839405749e-01 9.966019137031723041e-02 -1.505801260814451994e-02 -1.370646607905243175e-01 -4.833628057540268093e-03 -7.917996273061536638e-02 -1.330456886194368860e-01 -1.732301825802481932e-01 -1.466579039254761740e-01 -1.710991081496156252e-01 -7.483167693989761782e-02 -2.165573282118611609e-01 -3.508864295316703741e-01 1.216113717954178247e-01 3.021677405976098130e-01 1.731334392482704876e-01 -1.893834384147199956e-01 -9.418737491993590949e-02 -6.953283597670657096e-03 1.861238925669516514e-02 -5.326688661961762310e-04 -2.043671171118360830e-01 -2.598733395085561226e-01 -1.151576937187866190e-01 3.588079031867489332e-01 2.534481710872264412e-02 3.091542293401643854e-02 1.211784759543980128e-01 -4.041328305249650144e-02 3.712671021214619671e-02 -9.003652930192912462e-02 -2.175617285900584563e-01 -9.845942025407151965e-02 -2.358678348789250701e-01 -2.494331874826097029e-01 -2.222640054350469990e-02 -1.408992726809966956e-01 -4.781875498894263554e-01 1.015854961985773325e-01 -8.104368214300139428e-02 2.308167006595674697e-01 3.497805601694725652e-01 2.505283414230244365e-01 -1.053826201583014238e-01 1.258963803060977049e-01 1.449611695023065583e-01 3.282068476036083260e-02 8.848576287178541722e-02 -1.198405915726460241e-01 -4.811151691269696107e-01 -1.589217057592697269e-01 -5.072151318812171544e-02 4.363939810043664796e-02 1.283763728801613491e-01 1.314421999750855878e-02 -3.332740221087128474e-02 -2.409300376477482158e-02 6.842743320600264134e-02 8.482008865352198834e-02 -1.099094364772767729e-01 -1.421718865732912174e-01 -1.831231328854485418e-01 7.721549217954953859e-02 -1.315860361818397550e-01 -7.412301632262585649e-02 -9.668721894679635498e-02 -8.610866139549634701e-02 5.165497896277599921e-01 4.478589363497494369e-01 6.564229109628353376e-01 5.726182855533278326e-01 -1.601329544745896602e-02 1.015500584361102299e-01 6.477444120665057370e-02 2.364309862906981974e-01 9.130984630662443424e-02 1.001068650151679118e-01 -1.630312115831635683e-02 7.341788258682267754e-02 1.197280762006683735e-01 6.922978042193307646e-02 8.050778278733440596e-02 -3.363094794643280844e-02 6.618477411608897354e-02 1.328682869428192137e-01 1.756210418273411733e-01 -9.753406118348144360e-02 1.506541372527043891e-02 3.447209186910947347e-03 -1.173352014332798010e-01 -1.943578004548670302e-01 -2.899714350026789678e-01 -2.484741127919182502e-01 -3.217851681702463881e-03 -1.019149693628789571e-01 2.943773352278007960e-01 5.290695444276173331e-01 8.416244420956178196e-01 3.563295566310741291e-01 1.351594813316184807e-01 2.545587863839531839e-01 3.199317085259147375e-01 5.003258601928691762e-01 1.827477567274298775e-01 -1.696500515848002252e-02 1.512827507530252989e-02 1.893318019879078329e-01 2.670402270045117432e-01 3.349119083240934686e-02 -3.959819347603964548e-03 3.319647104390698739e-02 1.503323231437673213e-01 6.759659901572417744e-03 -3.795873528146430365e-02 -2.007597375717329324e-01 -1.362922009571118365e-01 -4.733307815529664425e-02 1.391239152258227918e-01 -1.381260464865269044e-01 -2.274046558632624171e-01 -1.455519564391529949e-02 1.434586088067858478e-01 1.613899836515376718e-01 1.410012097652751095e-01 3.438588145810920205e-01 6.317647345591187458e-01 5.126032166841103521e-01 3.816025666214635792e-01 2.476084411475432470e-02 1.763778577187384566e-01 4.114265455692756035e-01 1.995560664846538490e-01 -3.176800039413139043e-01 3.962013339855173233e-01 4.024645299365887663e-01 3.380561576955169456e-01 1.761083537732616722e-01 6.587320056127060619e-02 1.888949696925894817e-01 7.053277527804041949e-03 8.462667329711144604e-02 6.739847197147261215e-02 4.682901162966770017e-03 7.315422104426379246e-02 -2.448135135350031424e-02 -2.672827132154287008e-02 -1.745946037867724121e-01 2.584522912566463229e-02 -5.622803730533048987e-03 7.790444895817391635e-02 1.331531132149417762e-01 -7.520901826436800219e-02 1.902135808661579996e-01 2.540650300088556635e-01 6.942593991783599927e-01 -7.788516226024037870e-02 -5.580527603336281339e-02 6.547315528474034751e-02 4.789296458605121071e-02 2.825700415019923861e-01 2.063503627804032237e-01 9.336331214482340712e-02 9.108300904687092331e-03 1.566769425269000371e-02 -1.856830038454150289e-01 -1.265100757522119590e-01 -4.543665470794044231e-02 -5.419361457943404348e-02 -3.733455846830484315e-02 3.601536686028575240e-02 7.294032120311792766e-02 -8.256983478802702725e-02 1.094862622094099416e-02 -1.763671152473084980e-01 -1.867808689995977545e-01 4.633123249711642265e-03 -1.604365409976342416e-01 -3.308922389373594175e-01 -1.570045074139960750e-01 -2.030401943448506275e-01 -8.837286512177959519e-02 1.115084292554380102e-01 2.819669465236492867e-01 7.349783606256210522e-02 3.517411778143805789e-02 4.137066555494026653e-03 -3.121918189809131869e-02 1.215938647725650079e-01 1.817218788463326878e-02 -1.020118940965254878e-01 -5.066279177824439817e-02 -1.198627691467843009e-01 -6.569399462564907977e-02 -6.679283183828331472e-02 3.046538325275716455e-02 6.683892452312577281e-02 1.506215438969080445e-01 -1.204594929348436483e-01 -1.446414612856719295e-01 3.977786465818047151e-02 -1.018529373532579690e-01 -3.065734575537052420e-01 -2.837885594502143616e-01 -1.198054816411684848e-01 -1.834601920742009451e-01 -1.055661980582821291e-01 -2.407768663126828856e-01 -2.258091939045653862e-01 -7.544977105037013743e-02 -3.873892843591210666e-01 -4.238137930718965940e-02 -1.362120918090654886e-02 -4.526351088029698100e-02 -1.989663415183517969e-01 8.469462619674725246e-02 -9.789889586300577762e-02 -7.576937667917661885e-03 -1.254556920756217386e-01 -2.068014925355589340e-02 4.703757934955991177e-02 5.031379366850388668e-02 1.936670043454458146e-01 1.006186118214410022e-02 -1.446860372958004015e-01 -2.574204226273137386e-01 -3.730342070066832577e-02 -5.300298750190295116e-02 7.739357069630896369e-02 8.549669869013680479e-02 -5.357122273463166967e-02 -1.910773719441706819e-01 -7.091359622117707207e-02 1.950671114885859682e-03 -6.458060968860487860e-02 -2.020921345341062103e-01 -6.668130506643304978e-02 -3.958567513934486692e-01 -4.125386873711919811e-01 -1.719116210435743808e-01 -2.030013571127442865e-03 -2.358983628443830638e-01 -1.892965435289253873e-01 -6.667852985710145952e-02 -2.461606355916627848e-04 5.827514662017192759e-02 -1.236593998384015892e-03 -4.788722865114701521e-02 2.867922754110725503e-01 -2.420673508269015686e-02 -1.834574036254970342e-01 1.147479096959870132e-01 -3.278904982662735751e-02 1.373962077836968915e-02 -4.052870807631017702e-02 -6.789200614967971781e-02 -1.363141185750942619e-01 -6.609016692806257698e-02 1.327193720374314490e-01 -6.111576842499982093e-02 -1.342234374685228326e-01 2.763230362838345333e-02 -1.525969234190027168e-01 -2.627505841006170725e-02 -2.130733397959678338e-02 8.303424902697011112e-03 -6.389991333427856579e-02 -8.159567884883071887e-02 -2.742111671879605278e-02 -8.729155046092751391e-02 -8.298686142847766511e-02 1.469027093927034455e-01 3.901221920305054242e-02 -3.369005817800396069e-02 5.816753367422452300e-04 8.575301001782129062e-02 -1.535048918605545210e-01 -7.617685675673933378e-03 2.074706796204674533e-02 -1.702609065684697609e-01 -6.090281512506426354e-02 -8.978091620635586523e-02 -1.039201773467575834e-01 6.981008258139302647e-02 1.125227310533332137e-01 5.682871595634352707e-02 9.073495368800700914e-03 2.310182020627226523e-02 1.768002871902562001e-01 -7.579958421530068324e-02 1.018674263468818814e-01 -1.239236121130614654e-01 2.296199688878925588e-02 1.700590757477263987e-02 1.088493585729143343e-01 1.423994259020828212e-01 3.946619536281324031e-02 -1.449378593172955532e-01 7.048882648230048176e-02 5.859685500637221156e-02 -1.376746874379456143e-01 -1.032828431154757254e-01 4.079104801698940630e-02 -3.627378623068387015e-02 9.806788545491250397e-02 -9.471707456450795259e-02 -5.133066993568102809e-02 7.212238838866873170e-02 -1.087375338744941966e-01
7.105796088845875436e-02 -1.529284110841034328e-01 8.966928246712266293e-02 -6.811962073249902549e-02 3.452865865387103831e-03 8.739653154654841716e-02 7.379019315876807206e-02 2.896248029863828996e-02 1.678243333223853329e-01 5.949148219882274824e-02 9.669784685371035637e-02 -5.077174452804913973e-02 -3.306056502815525600e-02 5.410352778888149333e-02 3.766947272306932909e-02 -8.767016314379304232e-02 -1.502652505740342814e-02 1.288160865366686225e-01 8.735084639003883045e-02 -6.116231571369432768e-02 1.194678288147696041e-02 1.401325536123638194e-01 -2.924301132153015459e-01 -8.052602953206114411e-02 -8.645018434247185579e-02 3.494539560841005213e-03 4.671535226052521417e-02 -1.375686074497146395e-02 -2.671425314967653189e-02 1.741696141167947132e-01 1.281036920223544220e-02 -1.700319180371783201e-01 9.760765095420557980e-02 -4.606190784886241701e-02 1.148096370871994482e-01 1.569030865346114911e-01 -9.055786447270132954e-04 -3.382668181724595574e-02 -1.428681117644759746e-01 1.433798001929503622e-02 -4.849574909842916531e-02 7.380115871335336808e-03 -1.333591361745043724e-01 -1.214110460654400508e-01 -1.026161525526226165e-01 5.586312661961525400e-02 1.109359122842838441e-01 -6.788497027461266875e-02 4.690063998695603170e-02 -2.234643230891980303e-01 -3.803419121353210364e-02 -2.117509952920267752e-02 1.714152449953900911e-02 -4.548815904147807121e-02 -8.194033750596640964e-02 -1.404243321443709724e-01 -3.348141272574226696e-02 -1.417515576679413691e-02 1.653554208483291044e-01 5.486702189022332060e-02 2.366964210420146042e-01 5.437719148158088461e-02 -2.604683427602210236e-02 -3.274516759760757179e-01 7.239673058244766590e-02 6.035871791910557560e-02 -2.830768957815479187e-02 -1.461972093023568842e-01 -1.397519643025433855e-01 -3.269835485114729878e-01 -1.118844951080544964e-01 -1.665973025556061748e-01 -8.111112206654939871e-02 -2.423130419036879646e-01 8.402261831635213229e-02 2.574637763532100672e-03 5.906569442103946216e-02 1.728914556862281293e-01 -1.438441107010460761e-02 4.581998531843336359e-02 -6.128264153106453144e-02 -4.474627481771650123e-02 -8.842365923383249671e-02 -7.727027021925575445e-02 9.032171550962089790e-02 -1.347961903363038665e-02 -1.427858243333486946e-02 1.559117761746407760e-01 -1.925544625162310397e-01 8.400946973753539715e-02 -9.701017623226269870e-02 1.181638493888112623e-01 -3.222376043134014822e-01 -2.801771655014537177e-01 -3.297714370851710375e-01 -2.563295504445762263e-01 -3.551363747980109120e-01 -4.429914186120593178e-01 -6.504232143004651245e-01 -2.432331351506819561e-01 -2.043405222554759426e-01 -2.399815848181797995e-01 -1.871971314354745619e-01 1.161257252515423416e-01 1.017470151125315393e-02 -7.722736891700697492e-02 -8.039496819538836936e-02 -7.278932411927346510e-03 6.295142320656343937e-02 2.265967738102485085e-01 3.678896977246721989e-02 -2.458107966974540370e-02 -1.020944703108191548e-01 1.217261010702004181e-01 1.148935278276324579e-01 -6.406970519148307008e-02 -8.259728264064307782e-03 6.912760594607564313e-02 -4.222713255658886583e-02 1.617609786520886675e-02 -1.493688885300252511e-01 -2.384247474763253605e-01 -3.943684040341363661e-01 -4.259994057757231500e-01 -1.308583184547269518e-01 -1.647972011513755275e-01 -7.094440012502528647e-02 1.904722308781053031e-01 -1.395004122049905114e-02 -1.765735220160805918e-01 -2.001902430362025032e-01 -9.730106329996503212e-02 -9.334267435983276129e-02 3.596262863149966155e-02 -1.827435887276204762e-02 -2.667300172397162328e-01 3.924881396978213005e-02 1.402517722350153095e-01 -6.594472855340363648e-02 3.754575500098649571e-02 6.070310135888633968e-02 -2.532037912168335833e-02 1.643356077933507894e-02 7.531023605614505130e-03 1.321109749387940069e-01 1.553491034889921130e-01 1.459055275139228836e-01 -3.266135263378496661e-02 1.497508153692762023e-01 6.138083996567700318e-02 -7.579291557226550125e-02 -8.910551866873224480e-02 -9.206195448030662920e-02 -1.457813491399986006e-01 -2.143046356008437014e-01 -2.734973479571663479e-01 -3.976159223806901566e-01 -3.946363117930331010e-01 -2.944411477887840523e-01 1.259401278274351922e-02 1.927203741779379975e-01 1.963126265711887669e-02 2.157835573845488519e-01 4.727882066084252988e-01 2.664342110651727880e-01 2.137698212201762649e-01 -3.305530773674676681e-02 7.507549865719451154e-02 -4.083164142030246135e-02 -8.845796502312215648e-02 -5.832584009757823401e-02 1.281374746084652794e-01 1.234132731639848157e-01 8.294298957069126677e-02 -1.152920140231452478e-01 3.366512099061148844e-02 -1.277600172215160312e-01 1.173450681378897936e-01 -8.367696929227921854e-02 6.031473623156215214e-02 -3.474400661627348452e-02 8.028640729643522767e-02 -2.014421813517197624e-01 -1.139702403979652584e-01 -3.155965920727890617e-01 -1.631108093702993977e-01 -1.559173396416010660e-01 3.615708198269315110e-01 3.584975605952747113e-01 -4.045334749893834264e-02 1.979293740842469895e-01 4.686155236094784460e-01 2.501943294089612468e-01 1.089941141753723725e-01 -8.396217960612772577e-03 -3.286130124450437062e-02 8.948490879801293540e-02 -8.616272284642693957e-02 1.985016446778846977e-01 7.767823347754891639e-02 -1.044237193385741252e-01 -8.259219286379036740e-02 -4.972622350048427203e-02 5.227976918043512056e-01 -3.464685892283633772e-02 2.418362717910046977e-01 1.099465922599985046e-01 -1.542122713502915021e-01 -1.253935368641518888e-01 -2.052254078077641042e-01 -3.193437990347728905e-01 -7.407409509148719928e-02 1.471315765170431653e-02 -1.153070814130943700e-01 -1.151029935198935594e-01 3.970427525255153522e-01 4.995437618929707280e-01 3.442191016283219773e-01 3.109072919636408638e-01 4.971798769442880017e-01 2.998041048728973812e-01 -1.323358951805871271e-02 3.206489308456524773e-02 -4.005429944095148000e-03 -2.033125265867300260e-02 -3.662099846502674637e-03 -1.171740422227773026e-01 -1.344799665345994821e-01 2.325255842532847894e-01 9.035978902766779453e-02 -3.072747522740892911e-02 7.127729546763202084e-02 4.870322705226823312e-02 5.598949309832110949e-02 3.709025885248040111e-01 2.393759883473515759e-01 1.174754507140235264e-03 -5.785067627215431663e-02 -5.257523283736252606e-02 2.108761633101604027e-01 2.621254285878339418e-01 2.162873404192597049e-01 4.838613657995434747e-01 3.760053654149660141e-02 2.395649551773260943e-01 2.953243990482403158e-01 3.181517893613740600e-01 3.260495095835284074e-01 2.221246612120812425e-01 2.429102931432173540e-01 3.281981343845043891e-02 5.049722996181178758e-02 1.123606710966666838e-01 -1.864691527136505822e-01 2.089487391705143471e-01 1.412603957856110037e-01 -1.492616464671880742e-02 -2.799224525690102369e-02 1.872999857182048866e-01 -2.820820219488472894e-03 -1.428664575338522286e-02 2.124162692666414498e-01 5.796656476120744250e-02 -1.111202566603787523e-02 1.931961438439304402e-02 -1.396661775379524038e-02 -1.672075033024248147e-01 1.504090737015357782e-01 1.600465393843218120e-01 5.326773378685215610e-01 4.584010896647953137e-01 3.706708586096568031e-02 -9.940909604543519962e-02 1.822583545294564622e-01 2.855229530121796144e-01 1.959296562119761942e-01 4.027142115928635802e-01 2.466054503197486480e-01 -3.536567936149505320e-02 4.782071001423573303e-02 2.610648149735620566e-02 5.830520146246922358e-02 -8.774913989882694720e-02 -1.450989193954563446e-02 1.235766545461449706e-01 1.221662252841191204e-01 5.651185679449095556e-01 4.498829054800830840e-01 5.396636922035365908e-02 3.690521527641071331e-01 3.938767934679527488e-02 2.158176296719246656e-01 5.883796387654665477e-02 2.222585540327189774e-02 8.111563367428731991e-03 -4.159928506207306170e-02 1.894519240804708182e-01 1.817751133636148764e-01 2.819847254370645984e-01 2.271847269418584003e-01 -3.134107794683141379e-01 -2.463271786791132734e-01 1.535160717204354756e-02 -2.053430498594121384e-02 7.259763921471274091e-03 2.398693820362993168e-01 1.011839156017351471e-01 7.029597796824511857e-02 -1.245012715105302120e-01 8.505825194518024102e-02 -4.284954741996805511e-02 1.175861814080935396e-02 1.089069538887143945e-01 2.227958191021421341e-01 3.382991994896394350e-01 6.305625367706142459e-01 1.951678926376403111e-01 2.111246228927718127e-01 2.794481247808281582e-02 3.529497761858347293e-01 2.754177946242670205e-01 1.528006507426423466e-01 -2.378459844551129854e-02 1.012788566473964424e-01 -7.551645518369200227e-02 2.044995373667596317e-01 3.134908835688635098e-01 -4.202838071479743365e-02 -1.088712013991327693e-01 -2.679506014733272767e-01 -1.691895059630583176e-01 -1.522016134262501041e-01 -1.053872630197641852e-01 5.824385287897216462e-02 2.894880867822793510e-02 -5.110658392198545036e-02 1.515929522789387918e-01 -4.683229544513791559e-02 -1.956090216754606884e-02 7.275069706402528813e-02 1.269990906475237380e-01 4.212151579701076676e-01 6.074998801608857413e-01 4.669001326814400388e-01 3.038456615873374456e-01 2.640911644757226173e-01 2.316681415567000135e-01 -1.349632332915073028e-02 9.387091013792188410e-02 -4.659376918657577860e-01 5.300544336412357088e-02 2.522248983452305970e-01 -4.223402835904995628e-02 2.212625552239232407e-01 3.125780558632263451e-01 -1.361921761980818546e-01 2.043231479592075295e-01 -9.753960374979589454e-02 -1.545344058221836681e-01 -5.560184296432596485e-01 -3.931444449849079148e-01 -2.395254018740713628e-02 2.290731479130548101e-02 -4.931999496303789837e-02 -1.858610495121075512e-01 7.859784002215626508e-02 -2.243703298832630533e-01 3.537431223318784641e-04 4.283712104327868503e-02 1.455711881070741176e-01 2.706178027622457294e-01 4.199729511978855800e-02 2.800275388073056870e-01 1.405390313966798921e-01 5.824972143079241299e-02 4.294660988285776276e-02 -5.792648393800760992e-02 -8.741460633204861663e-02 1.635034308587028917e-01 1.619642014052308510e-01 2.714259282956801300e-01 3.197599477708935600e-01 1.244979357268424097e-01 -1.684321062251147860e-01 4.368926222983585128e-01 1.222457393079573185e-01 -3.418214699431711967e-01 -6.620993065463572913e-01 -3.056111131757801580e-01 4.212298677380955925e-02 4.162671402711751178e-02 -2.013446265618314968e-01 1.419087198045152209e-01 -4.046385952372547057e-02 -3.714098514225706860e-02 8.200664906166046583e-03 1.791917796463523560e-01 4.745218705686701094e-02 2.090568389775891156e-01 2.544769500196720768e-01 7.731346461300746264e-02 1.646839518815521597e-01 1.538975796065921720e-01 1.289853185791367263e-01 -5.001587888920062952e-02 1.151556110473918315e-01 -9.485283355090497193e-02 7.451333970559542719e-02 1.589216839333957854e-01 1.195560657559471135e-02 9.592375911103596942e-02 -1.214339790678399117e-01 5.936018371027376034e-02 -1.382181552415907566e-01 -5.551571474607071011e-01 -6.601678957498313682e-01 -2.046039842547712484e-01 -4.536347880652193132e-02 7.913118921011387530e-02 -6.172168817379655725e-02 1.172756763630181248e-01 1.515183386881471250e-01 -7.222183670912082909e-02 9.919240587960997946e-02 -5.064758824605893744e-02 -1.229508707732665518e-01 -3.816431762690173941e-03 7.466483024011193181e-02 1.444540737808703568e-01 1.327595631110257690e-01 7.709979931425740840e-02 3.316259471557577720e-01 8.982200098615644723e-02 2.823170452955473531e-01 4.455858576173574170e-01 6.708139543214447498e-02 7.712524610813856207e-02 4.770175886900780010e-03 5.917578857312336821e-02 -2.654934492384589118e-01 -3.160552905864247308e-01 -9.695309041426561358e-02 -2.926555841178009598e-01 -1.761748823055295787e-01 -2.103938475645987793e-01 -2.721803094346671864e-02 -2.270422239681279819e-01 -1.317399053588934853e-02 7.915474902981937955e-02 -3.572739662662235971e-02 -1.572570546241703338e-01 1.390120315739782619e-01 -8.296604211581970478e-02 -7.713690080399764060e-02 7.784821310440119546e-02 2.092491204777922886e-02 1.869299047177444550e-01 2.031139556548933467e-01 1.841212754297259779e-01 2.480310625297677540e-01 3.408909902943491610e-01 2.807691567993762516e-01 5.302751445864885005e-01 3.992107962433859014e-01 2.878012714067917921e-01 1.720203157273315353e-01 -7.676131327333138299e-02 -3.912324790522285767e-01 1.143211072293116339e-02 8.755048337809298586e-02 -1.160052009787858884e-01 -2.110664685271138596e-01 -3.888749902353300092e-01 -2.671124306361704059e-01 -1.251290358394430424e-01 6.464629020482623445e-02 -1.518254189829306156e-01 -5.952139789443014473e-02 -4.203321005965695439e-02 7.987717669400308529e-02 -3.052204642862106909e-01 -2.323800366514543192e-02 -1.509002574180842993e-01 -8.030014542995608795e-02 8.336212166412095004e-02 1.021134007618327011e-01 2.206550079502082873e-01 2.109155061741271875e-01 5.526819905840427705e-01 6.317948474244584611e-01 3.430076336511985735e-01 6.170354965121537250e-01 4.683650392633704196e-01 8.644542718835739048e-03 -2.317337375001053135e-01 -4.905937723110027071e-01 -2.269470570564783574e-01 2.849438963541125070e-03 3.982965133955920778e-02 9.876497320881746922e-02 -2.323927735420371066e-01 -7.834710528654836859e-03 -3.239635343624158031e-02 9.196155700404637368e-02 -1.372755152757507840e-02 1.940525937794966016e-01 1.100330689474395829e-01 -5.541631958495486787e-02 -3.320746936840132668e-01 -3.376861409337344466e-01 -3.733384832329723901e-02 -1.991767299266535007e-01 -1.875802201040150108e-01 -1.885701618484620090e-01 -3.473441382161165936e-01 -2.161229875598909556e-01 6.200861160670203404e-02 3.236737357102427159e-01 8.835329020260579425e-02 1.040431321933372039e-01 -4.011882034257388541e-01 -6.418283535255016325e-02 -3.341032185201965876e-01 -3.118831509788867473e-01 -2.580052281580350604e-01 -2.153770398424913746e-01 -4.148242178811226699e-01 -2.657683088101208679e-01 -3.639072434688921387e-01 -4.707707808850965236e-02 -1.205822253262476551e-01 -2.006413192323089068e-01 2.368611026036300804e-01 9.744190298433227926e-02 -4.110808956581388229e-02 1.873267272779074455e-01 -2.449039841278272400e-01 -2.876113715235706358e-01 -4.175031231484089833e-01 -3.564345379312030548e-01 -5.335258894305215938e-01 -6.542119345191432789e-01 -8.011899615390960516e-01 -7.503407980418664858e-01 -6.007540575062917387e-01 -2.897742204633948493e-01 -4.741932005478006751e-01 -8.355372388658213745e-02 -3.771788203296181918e-01 -4.338801034847361571e-01 4.545837977746439162e-02 -1.815874697749101374e-01 -3.881650676686187462e-01 -1.461659762365145054e-01 -3.063514204334688018e-01 -2.375778917112330024e-01 -1.777607664553056965e-01 -6.759180182424144590e-02 -4.105679858828374836e-03 2.621898845750333593e-02 8.481551089016442155e-03 -1.040853114008443159e-01 1.436225054932291634e-01 -5.301025362849339645e-02 -2.612411916091664787e-01 -2.871062124438306662e-01 -5.976256032249651629e-01 -5.522322396102469222e-01 -7.330366491223787584e-01 -6.356782182379346890e-01 -6.169205813971715413e-01 -8.121004117679915257e-01 -7.762572679262855768e-01 -8.247743198983398250e-01 -4.230533404784168616e-01 -5.244808852828517498e-01 -8.597665441443410467e-03 -2.708289461343269477e-04 -3.429149244014879638e-01 -3.770660000553070490e-01 -5.183946739537440562e-01 -6.034002643365369428e-02 7.033167090767020527e-03 -1.700637609899814662e-01 2.054444170526793789e-02 -1.623505896558852524e-01 -6.664265460707598232e-02 -1.487851488428265367e-01 -4.089517626827256225e-02 1.637104656092802646e-02 3.114285515567392568e-02 -2.038891382711542355e-01 -2.332558963288015597e-01 -1.020796178100488588e-01 -8.201667028524574354e-02 -1.716736688911706110e-01 -9.187240055591341936e-02 -4.149508214737036016e-01 -5.821464870116979107e-01 -3.556448969246373548e-01 -3.007745198453736224e-01 -3.276255722519098024e-01 -2.919327131136134068e-01 8.806204472134110395e-02 -1.343285323232351336e-01 -5.085599391709225842e-02 -2.508851449271448653e-01 -2.069013337993273749e-01 -1.083575465645117142e-01 2.975142680354342373e-01 3.231252422642234140e-02 -6.638080496216494653e-02 -2.248946333649539872e-02 6.922881087602654471e-02 4.608144341655216053e-02 2.286489814991164993e-01 -4.151846588023445223e-02 -1.055772561619619868e-02 -2.487718684568005975e-02 -8.640151081628735796e-02 -1.163466060515519207e-01 -1.666536210034842147e-01 -7.395030961480775211e-02 1.113372186502825378e-01 -2.858837087425773749e-02 -7.837583068918014054e-03 -1.340202908095681211e-01 1.298791053880194238e-02 -3.264985059499005832e-02 -1.405636366763974854e-01 2.256803897620616496e-04 6.686764845116593969e-02 6.933144764230048107e-02 -7.328147824302667923e-02 2.232407257165670844e-01 2.141543871915869424e-01 2.833940898851646309e-02 4.057145801786848915e-01 6.009051275912179885e-02 -2.167023312857436768e-01 2.073950708381562535e-01 2.104410299433469300e-01 1.617029687641469704e-01 -3.801780774123362898e-03 3.157727775452307678e-02 -1.988992608375252102e-02 -2.080423190602881944e-01 -2.073340640592893636e-01 1.422802868346796090e-01 -2.398070631841702216e-01 -1.611370235933485412e-02 6.350453394033356291e-02 -8.569311773275940791e-02 5.137501334382127416e-02 2.251493705823391298e-02 2.802177450077365517e-01 1.504709861540923788e-01 -5.905913049383378771e-02 -4.713882136400401185e-02 2.988625642933531168e-01 6.001788806370953605e-02 1.253591206709458172e-01 9.568239242911592835e-02 8.331130100503911229e-02 1.497215140177355908e-01 2.425908773242043404e-01 2.370017150743887122e-02 -1.036072666498926709e-01 1.404606011231294416e-01 1.866970428145313943e-01 -8.914191326354065081e-02 7.232874038377236359e-02 -1.422560691142444600e-01 -4.907999100254993238e-03 8.335018901526952684e-02 -9.414360970059506770e-03 -3.929163696880236256e-02 -7.118400501944169290e-02 -1.011776558810653648e-01 -1.000501163773160479e-01 -8.773998165724196385e-02 -8.439847478195762476e-02 4.970315099503426872e-04 1.399544016198073781e-01 -3.840396711654506245e-02 -2.868735247673969563e-02 -4.669968096053403461e-02 -3.468775070433427477e-02 1.183234777094833851e-01 8.749701147649560640e-02 -9.286666370735839615e-02 1.295863383342303055e-01 8.024084756800876905e-02 6.037037061544800812e-04 4.221979568710407249e-02 -1.408192852090087328e-02 1.226229225401028466e-01 1.365541891466769131e-02 1.632332091623610038e-01 -8.430622552930167046e-02 7.044987234729999104e-02 9.735768063319241716e-02 1.148983259920125372e-01 8.649866132269794228e-02 -5.908319377238563375e-02 6.620938336585753536e-02 -3.015742320859859590e-02 1.477453158236794462e-01 5.537710489896210259e-02 2.088221364207077935e-01 2.294832190403002237e-01 3.158802188138577494e-01 3.005476581966449179e-01 2.969807710519313249e-01 1.460926954442020309e-01 2.757734839952396544e-01 1.346921383110944725e-01 -2.093096664317377342e-02 2.430471402459241301e-02 2.068831097246517370e-01 2.074503703950932310e-01 2.298167522254245670e-02 1.169416426132063730e-01 1.637870462298941093e-02 -6.623825792455110065e-03 -1.597426600768197258e-01 2.076100966784217849e-01 3.718108804669153361e-02 -2.210414737475065172e-02 8.813677297817973377e-02 -1.796983047385259102e-01 6.244737120949679643e-02 -1.634054877590850330e-01 1.393370270820070700e-01 -1.067236473620874343e-01 2.400015585538819718e-01 1.340802326328532357e-01 7.848687452679999066e-02 1.689155635725185789e-01 9.998516851827994253e-03 7.656786579071329923e-02 2.471215785343304494e-02 1.223965909115107831e-01 -5.148946351547768752e-02 7.802507024226362775e-02 1.641843726900441003e-02 -2.524141819247679649e-02 1.145841205678825858e-01 2.122790887309074226e-01 1.783119083322286802e-01 4.964901710657342038e-02 -1.260282273686303411e-01 -1.322374026557094073e-01 -5.853412274616215383e-02 -1.961524215795129589e-02 -5.733633828866825655e-02 1.019878482857065546e-02 -3.765006877245326289e-02 -1.585960104310464858e-01 2.846728221053367383e-02 -1.995113323263247515e-02 -1.125161448407909215e-01 -1.479077929056557723e-02 4.085818524821131087e-02 -6.266136157315066457e-02 2.549784318183721532e-01 -1.659066243697761844e-01 -4.651757345487041173e-02 -4.564347602370232015e-02 1.280719462556076903e-02 7.954623438601610141e-02 -4.023670222483147901e-02 -9.699313014038712932e-02 1.464627256201410654e-01 2.062963464800821878e-01 -1.669897983874603017e-02 4.513354211028065138e-02 -1.115889831816461591e-01 1.027673406374510351e-01 8.574006196226725829e-02 -8.800187689195210217e-02 4.124295803049829456e-02 -3.343662009158717557e-02 5.095545400429760466e-03
-4.034679164798123108e-02 -4.608547497618567523e-02 -5.275256837852113079e-02 8.822083451629228468e-02 1.559599683626948941e-03 1.999924879841880054e-01 9.704399132870793199e-02 -5.938462929065217027e-02 -5.355295617815152703e-02 1.257507729166526013e-02 -8.797146125594088040e-02 7.416354691525971210e-02 1.545848600091285358e-02 1.049691161361270553e-01 1.126447945556464936e-01 7.618403847947913254e-02 1.004843641121593162e-01 5.959908777338765451e-02 -1.629126616780729453e-01 9.250529960456208012e-02 7.757173524848971768e-02 -5.823709928712111905e-02 1.212203025274789514e-01 -3.484912914111897714e-02 -1.808493197287722731e-01 1.796067907369279792e-01 3.862659472120590076e-02 1.062788120963484434e-01 5.559089538006040110e-02 2.137116834618381020e-03 1.503829354888396030e-01 2.211144834492158040e-01 -1.213955809224869092e-01 -4.370865601994838173e-02 8.774281384411321272e-02 -9.997824777700700660e-02 -7.461425593946294232e-02 4.668057698164319522e-03 -5.474786797248549358e-02 2.185087706925940843e-01 1.129094828921587551e-02 1.109922947510906116e-01 -7.304767929904391888e-02 4.364929619184782644e-02 -5.405889682007846558e-02 -9.967401853612722906e-02 -1.417054432493888572e-01 -2.348481362261864783e-02 7.373053684380516393e-02 -1.098304285754568739e-02 -9.791689488675688058e-02 -1.769149165709697422e-02 -1.058531109435147943e-01 -8.199835989946882217e-03 7.226608077813692806e-03 2.145577794056657828e-01 7.647352595740113113e-03 -4.059493241160398724e-02 1.319758035568662502e-01 3.490246063365289031e-02 -2.511903604876344551e-02 -7.388380760480933729e-02 -1.400427594534640330e-01 -1.400032341247726964e-01 1.083997316090348495e-01 -2.337311469562175850e-02 -2.569876932826372640e-01 -1.686749557904988484e-01 1.747331125177367661e-01 -1.032155099871855802e-01 1.136847464108053408e-02 2.017359822026820182e-01 4.493591325838973416e-02 -3.459149866343762258e-02 7.924007849755178301e-02 -2.694504982259764980e-01 1.181974521497996949e-01 2.564914944146619025e-01 6.072370468111415454e-02 8.755712925589706486e-02 1.568226007865871630e-01 -8.987235394468189031e-02 -1.029203363706086560e-01 5.700291137038540623e-02 -2.773331153990675826e-02 1.485275612454537431e-01 1.792034925340426077e-01 6.567801139252196774e-02 2.103855280962360630e-01 -7.654000181611338161e-02 4.531740544304670160e-02 -1.269770041312066056e-01 -2.848288869726431360e-01 7.922004325682169279e-02 -1.490882177536768764e-02 1.698305043588175245e-01 8.397911805647348404e-02 2.185206522851372846e-01 -6.603078791383293344e-02 4.637820672481712814e-02 -1.118795906831310666e-01 1.434509526059108975e-01 3.422137458840104896e-01 3.397352879649242485e-01 2.488114896357221384e-01 4.555545833874550810e-01 1.985637272213033599e-01 -7.430397349973444365e-02 -1.201267688217855754e-02 1.406289572396876575e-01 -6.205687677594567270e-02 7.241405020547241056e-02 -3.144218472819020060e-02 -7.265112521772228160e-02 1.314843221453562139e-01 9.173203642932156732e-02 -1.035125859987970631e-01 5.294267471619169829e-02 3.511067479675912539e-02 -2.684492169524934149e-02 7.200548541585577444e-02 4.958327992138113205e-02 -8.059922693962955076e-02 8.900915354634068855e-02 -5.389069210714288877e-02 -3.163384334896238853e-02 -1.623626371947543140e-02 -3.463649455909598718e-01 -8.020845032809839070e-01 -3.157264059214915930e-01 -1.172132706802910332e-02 2.211492447524112115e-01 1.419931895811827605e-01 2.987289018141588426e-01 2.030448553426777436e-01 2.301600577920748791e-01 -8.203046284736101312e-02 -9.321471706020750814e-02 -5.703536365272374870e-02 4.938054461471286238e-02 -9.590083749426284165e-03 -5.194974951127421386e-03 -8.523160747498063905e-02 -1.666128693464230259e-01 3.968455842852708360e-02 1.780418508301801275e-02 -1.186792198821087161e-04 -1.866011692311675962e-01 -1.063867245610769924e-01 -8.255359440690963890e-02 -3.872838336917022728e-01 -2.612826843680200462e-01 -5.191730712106831236e-01 -7.804344468573367610e-01 -6.842233367409370492e-01 -7.488906331195918087e-01 -8.487713303611829074e-01 -8.254691743155351258e-01 -4.999425715758068489e-01 -2.975453578230607410e-01 1.434841424394110894e-02 -1.654343987828513218e-02 1.714837714780790834e-01 -1.995312030303165313e-02 -1.584771578485623944e-01 -1.763919491242509907e-01 5.624276453317479663e-02 -1.326520995925686841e-01 2.363798115133798963e-02 -1.401819558698457757e-01 7.208123822944569048e-02 -3.403254159633875564e-02 -6.927783121628415530e-02 -2.009365952250828646e-01 -2.840271830677457143e-01 -2.825281682755886870e-01 -3.298966458815307812e-01 -1.901733953583849279e-01 -6.013189034193522353e-01 -1.273793347999425396e-01 -2.247062144719403076e-01 -3.614441518582925394e-01 -1.319713719060522372e-01 -2.644862290531448390e-01 -1.880544269034589155e-01 -2.430137376957722251e-01 1.698630830817562387e-01 -2.160077926701884921e-01 -2.581846969315090834e-01 -1.798491248817396249e-01 6.495979678480284791e-02 -2.434726278464294791e-01 -4.164672175657191389e-01 -1.623528828768877885e-01 -1.339703636806244824e-01 -1.042055974652959793e-01 9.892234165379192035e-02 -1.721312817769454773e-02 9.546858535052180073e-02 -6.864113147788517000e-02 -9.972221808598474846e-02 -3.247044969253407576e-01 -2.856436405463101957e-01 -3.087272403130680853e-01 -5.661347794619171481e-01 -5.600612450506193829e-01 -1.901285712730752253e-01 1.781717488725315102e-01 1.727877379824425963e-01 -2.445176181206507038e-01 2.821429338109462392e-01 1.057437988946077351e-01 -3.737823588519596091e-02 1.499651427840406059e-01 -2.045975610434053737e-01 -2.380845844625366081e-01 -2.922466559886888748e-01 -3.063663853063057219e-01 -1.797592838415323357e-01 -1.294768817027552033e-01 -5.158072710130904293e-01 -9.957562343047711428e-02 -1.284455901846423553e-01 -1.715354161734974903e-01 7.020725488715276463e-02 -3.648546222534335484e-03 -7.740688745273323346e-02 -1.828450614201429791e-01 -6.611410632460543169e-02 -1.162573620333303137e-01 -1.874959369118018859e-01 -3.583545839713230818e-01 -4.656567157539007740e-01 -4.227349172725148319e-01 -9.854553017022087136e-03 -3.730195231325965644e-01 -3.057029691428252982e-01 -5.403206358191374736e-01 -7.415472463181088658e-02 -1.684289699053102135e-02 -1.973254865897204058e-01 -7.214061910995871185e-02 -1.752532024338079863e-01 -2.153324549090097906e-01 4.346341120911199202e-02 -3.386850777957676750e-01 -4.912676933998424422e-01 -3.913848360015192429e-01 -4.108652969695126278e-01 -1.290740216999839429e-01 -2.993475190608992365e-01 -7.844126179084742745e-02 -8.547561496265770886e-02 1.105164390752520903e-01 1.140742934988137613e-01 -5.638949914061306551e-03 -3.571157177458443299e-01 -3.551728044426417652e-01 -4.043676824381545742e-01 -3.951338640074588682e-01 -4.495060980334150136e-01 -4.534804167229872784e-01 -1.618313988794723157e-01 -2.774745345172083821e-01 -2.688829336962742511e-01 -1.978680286352502427e-01 -4.994896498268127510e-02 -3.199519346538675091e-01 -4.535377587181211312e-01 -4.369428269347230276e-01 3.408975991736633293e-02 6.058399745811082066e-03 1.230999628644164345e-01 -1.713975064722660924e-01 -3.301379576128447568e-01 -3.983389140566145348e-01 -2.469857546251851554e-01 -4.269386372370976290e-01 -1.112346228543181631e-01 -3.037435768200122399e-02 -1.762985316348308559e-02 4.214582625014411804e-02 5.765338222096410420e-02 -1.531430065952964215e-01 -3.724463546691753058e-02 -4.032412054955350489e-01 -3.628174328592227438e-01 -2.160539631915085745e-01 -4.435447856853351745e-01 -5.172705364156877650e-01 -4.214859498511456803e-01 -4.086580598826285438e-01 -1.933726450385163942e-01 -8.006487362531004848e-02 1.833924031671927898e-02 1.143432618581169792e-03 2.083970839728128410e-01 4.958550696754068093e-02 6.265934299909954597e-02 4.690882985902393443e-02 -1.493833221344246232e-01 -1.001420034494473060e-01 -1.930093008358937379e-01 -4.659349349300176968e-01 -3.061137295111426848e-01 -2.224724403303615372e-01 -7.717151941647353020e-02 -4.683840676959573346e-02 -2.674769157004049103e-02 -1.063625905356401467e-02 1.764100734722730268e-01 -5.643743205117933426e-02 1.058749287838360031e-01 6.466818171285289296e-02 -6.444751161320372290e-02 -1.575240865031576620e-01 -3.942749733847686344e-01 -1.551926569592949889e-01 -2.059933391342362030e-01 -3.269718270984960790e-02 1.998464532104703151e-01 4.181418198509945228e-01 5.131662457001107125e-01 5.461252075687745844e-01 3.950992748469689397e-01 2.463251049155663341e-01 2.949597944684901121e-02 2.616164782454009630e-01 2.291870057722504225e-02 1.395948234161004109e-01 1.857679705760869049e-01 -3.402441645582093832e-02 -1.233545329326456580e-01 -7.950615546797211095e-03 -1.452764496230068373e-03 -2.101268713295011831e-02 6.057742230187992266e-02 -9.350114870672668332e-02 4.938790514720540342e-02 9.344926615109321044e-02 7.953285252570602148e-02 1.600650162404160526e-01 1.953841936293887194e-01 2.573839355161492426e-01 -2.315016682753189003e-01 1.190757738022017037e-01 -9.081633702528003893e-02 7.072677017132608657e-02 3.336357084306443843e-01 2.233800728319126627e-01 5.858802115151331424e-01 5.999216539584639740e-01 1.396920628278372767e-01 7.993737787326292421e-02 1.190193863355902409e-01 -1.462989071277745190e-01 -1.918837748675336977e-02 3.196057959465920528e-01 4.666855583838788180e-01 -8.182714080107825541e-03 -2.465587035501938251e-01 -2.661326873553711558e-01 -6.807899528962435554e-02 -4.408617220899217759e-02 1.045041932311784882e-01 -1.686203915458073938e-02 8.147294926584192076e-02 -3.510261635395577496e-03 2.151135886195622016e-01 4.239958728194390680e-01 2.278003082440357985e-01 4.479628320615455239e-01 2.459711262018793310e-01 -4.608818223507188394e-02 2.964172049423562938e-01 -1.983496681699976893e-02 5.461761312241758537e-01 4.677297179273526284e-01 1.899963104176856932e-01 -9.402566500720080378e-02 -1.249230219481270165e-01 2.251477960647524645e-01 2.734515081899240307e-01 3.039577675367079457e-01 3.614729913159583918e-01 4.507372678346376893e-01 5.859180842045995652e-01 6.557980953527005330e-02 -1.043100109841460510e-01 -2.320796659715427535e-01 1.856995129954819648e-02 1.077555627646517231e-02 -6.520268241717605551e-02 8.302362319513521827e-02 -3.409843414225122854e-02 -1.021784669707297144e-02 1.736195273077790202e-01 1.970070834421271677e-01 5.718249573036653377e-01 4.848787031705247275e-01 6.932551862587464919e-01 4.473229347292488889e-01 4.037231153616530621e-01 2.236955454602712889e-01 5.862669249261787119e-01 3.747785725882074037e-01 5.050708812216758714e-01 1.214853251894392749e-01 3.629812034909977725e-01 -8.416308288893895734e-03 4.257545326177385459e-01 4.705525667789202671e-01 7.368152695852736578e-01 6.716593111383153403e-01 5.294830894492726925e-01 4.879121566303330076e-02 9.290168325380213088e-02 -9.515642405189850273e-02 6.631398816133872443e-02 -9.376090953137987405e-02 -7.841159942645863079e-02 -4.707515530079842137e-02 -1.141192035882910849e-01 -2.093188764766814799e-02 1.198995095348631863e-02 2.164146314966752527e-01 7.037255728648377229e-01 1.021811633026964428e+00 1.084330974104695811e+00 4.804994934421937813e-01 3.930959366218597650e-01 4.381550686301944331e-01 7.383115383520475784e-03 1.145680230308211145e-01 6.610521904015540517e-01 1.798874415132070137e-01 5.099706172446927255e-01 4.862585427828733375e-01 4.543620891501727876e-01 2.569095229157339344e-01 4.408827720254986371e-01 4.623535661693086718e-01 2.496954001907588094e-01 -2.889687509938488885e-01 -2.045283925706948003e-01 -3.061164060572321710e-01 -1.270185194357780767e-01 -1.086162578945422119e-01 9.536433814536383891e-02 -6.702458648972745014e-02 -5.114708115980851760e-02 -1.299360790695309846e-02 3.547196267900974004e-02 2.990057175307815340e-01 7.026455965638996881e-01 1.270292694836324454e+00 7.819681138582609270e-01 9.520369240013833168e-02 8.985696786217163556e-02 6.053057337206994015e-01 -1.020164558735592586e-01 -7.744419974644142779e-02 2.553551001789002295e-01 1.229348786548678518e-01 5.553652501192724023e-01 1.173315139857392525e-01 1.357414648395173506e-01 -2.119873869580673753e-01 2.267954971391104163e-02 3.983754808923555268e-01 1.517292878533698930e-01 -2.803977774435191250e-01 2.399500848763764377e-02 -1.006350406262078723e-01 -8.475890307918031163e-02 -3.063337967695293762e-01 -7.312867058478093873e-02 9.442134495398356309e-02 -1.519437202030659295e-01 1.021861184649813376e-01 -1.053477289301510272e-01 -1.695225938773624874e-01 5.134282648130031879e-01 7.671525289477801879e-01 5.260381119279257112e-01 2.200824861570128688e-01 2.842453253595279006e-01 2.717519170740211876e-01 -4.765313343474179147e-02 2.845544604438149938e-01 -2.617976876913475359e-01 1.887240285423256447e-01 2.339943605470942156e-01 -1.085750838648453231e-01 -2.447795277331131225e-01 -2.437414117466152608e-01 -2.043894667158266398e-01 1.563990382279178970e-01 7.525022223152351419e-02 -2.751015673567161479e-02 -2.616267416564424519e-01 -1.606818750577649613e-01 7.024512058776116730e-02 -4.237724937171023082e-02 -9.603445177884638306e-02 6.690478684838110923e-02 -1.624857418281088206e-01 -1.753796541507394169e-01 -3.462325218378634051e-01 -2.981814777503007385e-01 4.547467875408182057e-03 3.442754548077349708e-01 5.412737535546070511e-01 -7.084456660101938474e-02 2.638145642867981144e-01 8.128851683555674001e-02 5.707607973609337554e-02 4.971493652367631882e-02 4.143546927873367203e-01 3.651069164043395099e-01 -4.385777858222774522e-02 -1.880379462942965429e-01 -1.233662085986143298e-01 -4.249205578745409578e-02 -2.816679812104529446e-01 -6.642564081874402504e-02 -1.233047563085686721e-01 -4.044502341236210219e-01 -9.918458541092320391e-02 -4.360563831426465808e-02 2.305907025522137277e-01 -1.111735754874259574e-01 2.626915191638257707e-01 -2.898338040967565407e-02 -5.463765897085905154e-02 -2.179036349618440060e-01 -1.282540147105872552e-01 -5.700323073233619642e-01 -3.407912085176815209e-01 -2.263948154355760467e-01 -2.318225703965320628e-01 -1.666794499328744794e-01 5.890152196426547138e-02 2.211951461531581342e-01 -1.564494802870719861e-02 6.982283305301610621e-02 2.802149259289355432e-01 2.455302286055394828e-02 -1.778822213034303712e-01 -2.475044187722951483e-01 6.197138130497033964e-02 -9.623531711143339107e-02 7.081472464518378737e-03 -2.079341479220322142e-01 -3.194665540205652299e-01 -4.221669882515087235e-01 -1.243077178620426021e-01 4.766464086171100928e-02 -1.325075995276226160e-01 1.527989016364621755e-01 -1.594750878656757964e-01 -5.585854774066943002e-02 -5.401031804774233946e-02 -4.753851869898027133e-02 -1.125343941434464590e-01 -5.092875157568883537e-01 -6.211058667214753859e-01 -8.833367026340855910e-01 -4.996946317851841957e-01 -3.753678935974465447e-01 -5.558471699867553184e-01 2.269324324197294351e-02 1.350542589952011957e-02 -4.383687504880172392e-02 -2.290134310879571866e-01 -3.207849264181140136e-01 6.914810439388732743e-02 -4.533384836366446263e-02 -9.486524934783636953e-02 -1.541093261197558073e-01 -3.966103145873592917e-01 -8.160654017872417954e-02 -4.889215981092895347e-01 -3.170049230077152669e-01 1.232263414240236388e-01 1.317615099518251176e-01 1.318680003710550608e-01 -2.125510242969707586e-01 6.689899004358942913e-02 -4.321007661419983686e-02 5.610577516083357918e-02 -5.829523392826626779e-03 -8.417329589484745522e-02 -3.444063274431810040e-01 -5.929358147926656608e-01 -7.205497549819923631e-01 -5.898538384771413456e-01 -4.853596591408593786e-01 -2.688213073905639794e-01 -2.979894736321411775e-01 8.671869576357495168e-03 1.850842003718835838e-01 -1.630749425760761595e-01 -1.831619825149646552e-01 3.665689588452878539e-02 -3.581949411049534238e-02 -1.656308810106410664e-04 -1.265551116893569028e-01 -3.076258538124891917e-01 -2.322589306491272265e-01 -5.045020506773809643e-01 -1.231743083589041665e-01 6.559148815181578551e-02 2.086606727332110389e-01 -1.323098647213763468e-01 5.794674169731799801e-02 -9.020711921489962815e-02 3.319809430252429472e-02 -4.377930400388651416e-02 1.359787324911575501e-01 9.134658962849812047e-02 -2.209630029766087578e-01 -1.497676167165526151e-01 -3.550726525193417804e-01 -5.551760040830199250e-01 -5.328230750306255370e-01 -4.150306630882537040e-01 -3.268456729340981637e-01 -2.646065111281248883e-01 -2.753684746087305402e-01 -4.049800472017473507e-01 -1.248891193941726319e-01 -1.631969483819023861e-02 -8.464268233054542123e-02 1.281762698650678600e-01 -2.711732145739005340e-01 -2.798173248063216545e-01 -4.812439705369874615e-02 -2.802902386551210934e-01 -5.875670219557622975e-02 -1.139398298335874971e-01 -2.091032343762125323e-02 3.972462947804006328e-02 -1.887899420153233421e-01 -1.142939652144678297e-01 -2.095912629861867438e-01 7.770971189658650025e-02 -3.950664963402476804e-02 -5.556158921364082875e-02 5.813083767967126142e-02 1.367139557342085532e-01 2.267212608648016270e-01 4.005094970042310382e-02 -4.380383994001352810e-01 -2.923435575962049504e-01 -4.258380151009152903e-01 -5.024542771982390965e-01 -2.204028564111969457e-01 -2.585104546353383936e-01 -1.421549241066984437e-01 2.253299933085442866e-02 -5.719179375605167211e-03 6.999628621707455756e-02 -7.342674645382936405e-02 1.261909616138400525e-01 6.882179822958324478e-02 -4.302926773552959855e-03 -1.852785875889086803e-02 2.077604347981046318e-01 -1.440807406211246922e-01 4.423090039740018575e-02 -7.184097411905918627e-03 -7.833757447128775198e-02 -1.707511766815907397e-02 8.491186956696360200e-02 -1.991195372855269694e-02 -1.431507416738950766e-01 2.215364238904747596e-02 9.678457996565707766e-02 2.145000571861579441e-01 -2.218477342094290206e-01 4.307658456603610797e-02 1.056855256678571192e-01 -1.807504385874399433e-01 -1.778061183191148309e-01 -1.482172720501064578e-01 -5.760938394226863268e-01 -4.827605137405446833e-01 -1.213176569954692030e-01 -3.053939025623342851e-01 1.215482614884306894e-01 -1.995236263647730268e-02 1.491901327891200224e-01 1.755557925656780760e-01 1.920552618361112684e-01 -6.629641329840324504e-02 2.940983122762769186e-01 -1.256063282550956006e-01 1.603284871104384557e-01 3.945596829004397593e-02 8.511147520125657284e-02 7.109361746860230757e-02 2.184878482224163546e-02 8.901346707048723994e-02 -6.831146027849441249e-02 1.478583432895904659e-01 2.736528611069130590e-01 6.005360054921464463e-02 2.303184481899052394e-01 1.785811112990674798e-02 1.215408372900754763e-01 1.038291278678975249e-01 1.359821734341886967e-01 -4.186289564394791995e-02 1.628848566200866155e-01 1.707923858679877976e-02 -2.676157014392264166e-01 -5.687998367669339084e-01 -5.238514486073897816e-03 -2.943511857671434265e-02 1.073772329360112715e-01 1.554899558738866983e-01 -1.746325124072031221e-01 1.661692615740820861e-02 1.220221165812290093e-01 -1.346130659518839784e-02 2.436882668410830441e-02 9.579396256361840181e-03 -5.413722317216066587e-02 -1.359055118145779673e-01 -1.031273598760712451e-01 8.623909160188220069e-02 2.126208469159849429e-02 -7.788874806856106725e-02 -5.885843856700237464e-02 -1.265496931513818701e-01 -1.149490552555002681e-01 1.900449694982599830e-02 -5.110856605896757499e-02 -1.047497384073644601e-02 2.788641490971242518e-02 2.487856040544436653e-02 7.526575166122885518e-02 -1.090522132074034645e-01 -4.313724141175229870e-02 -9.503030245102087048e-02 8.237278980074191903e-02 -2.779704935915019437e-01 -1.377720980449613150e-02 -6.766352131635451628e-02 -9.147565484370837052e-02 -1.074201278732164894e-01 1.508320118797844001e-01 1.199301253829252040e-01 -1.006235369482292585e-01 -1.476033875283213337e-01 1.315729284409019595e-01 -3.849955473013794149e-02 7.856491093096326650e-02 1.358486072262259647e-01 5.232877861377802087e-02 4.420275254613517668e-02 1.350947650078470896e-01 -2.698881547543064471e-03 2.838059322995468634e-02 -1.132953446606935373e-03 -1.193100227776727473e-01 8.507840059048898951e-02 7.149251419929633644e-02 8.697374040116971280e-03 -1.104875584155602941e-01 3.491059970622424798e-03 -8.393997664917793311e-02 -3.855282248975660381e-02 2.399806735225830379e-01 -2.158594635224036010e-02 -5.284509538002554740e-02 -5.160802083812210395e-02 5.432343752243863622e-02 -1.291269897650134876e-02 -5.087596661226519157e-02 1.931861561885863179e-02 -9.267396223577296921e-02 -2.074002454671790285e-01
-8.432740531312209187e-02 2.521695168906240223e-02 1.155632272853472919e-01 1.485671576670562037e-02 2.028607488422046468e-01 1.775793949225247872e-02 -3.964234400948185577e-02 -1.644888649046901130e-01 -3.212510151574719114e-02 -1.531650098191757875e-02 -1.166701300018403442e-01 -1.107936795114369821e-01 1.735507060494883014e-01 8.393081728400497710e-02 5.090816733148072898e-02 -9.596752966422515685e-02 3.019078681360981217e-02 1.481108694858557229e-01 1.507061718400665206e-03 -1.791238681579267536e-03 9.475198954499995663e-02 -1.713020983067308489e-01 -1.005179435269207278e-01 1.581663352244821463e-01 4.617920246600739492e-02 5.513661949391836237e-02 -1.557467855891412900e-01 2.579811260603767295e-02 1.647846030693388419e-01 -9.430094695724416942e-02 -5.954983760824567041e-02 7.517085930594359644e-02 -7.459543563151653511e-02 -7.949264462088477534e-02 -3.280442719995484147e-02 5.082683366475285874e-02 1.234328889864979607e-02 1.975142247476814952e-02 -2.730056770079467010e-02 -9.469363919158457765e-02 -4.085278166886618934e-02 5.784766054510664945e-02 4.818380123532121223e-02 -1.681522290644939799e-01 -1.243009837298984926e-01 1.079810433321482521e-01 -3.581135441973804824e-03 5.978579902196055201e-02 -1.804904660049011234e-01 1.788700607240878704e-01 -2.059123270628690772e-01 7.629103443352738823e-02 -5.184225034913116092e-02 1.771565929564388950e-02 -1.327107988126336596e-02 7.462807967042846269e-02 -2.500167361352160361e-02 -1.203159868364801072e-01 -1.123019463869324580e-01 3.357094597967325011e-02 -1.163652212053567225e-01 -4.997217538012642402e-02 4.051880620097934871e-02 2.267285495113864624e-01 2.410828859747289263e-02 -7.692823858650575664e-02 7.264322019134181185e-02 7.310763740957514079e-02 -3.254708002551448542e-01 -1.463602245955572534e-01 -2.622312031929024401e-01 -1.190904438712847430e-01 -6.769260407530550139e-03 3.070758201327189116e-03 -1.443568322508691215e-01 1.648203788842326004e-02 -1.307173390322330375e-02 2.241611613869882308e-02 -2.987910990291353999e-02 -2.500690949957830658e-02 -3.116110011299895802e-02 -5.163352307675663638e-02 7.454595047893150528e-02 2.406580585712978990e-02 4.339885555503277675e-02 1.472065891638200397e-01 7.171277931825470464e-02 1.573171156586464225e-02 -1.171557961460261699e-01 1.217148156653734686e-01 -1.037852067906522430e-01 6.389679234420665710e-02 -1.430375854147309701e-02 5.441039155275299161e-02 7.974434614500328089e-02 -7.139075480122389350e-02 2.301349547244917748e-01 2.238917550665549261e-01 7.223078437921473527e-02 1.670383092796645652e-01 2.803279679752413434e-01 2.196223825420203501e-01 2.159550178148443855e-01 7.624656442368085707e-02 -8.064290936035768687e-02 2.595109311980029008e-03 -1.550993547831536479e-01 -1.603411391356775739e-01 2.103920824462815822e-02 1.284007693247619653e-01 5.529956454015123868e-02 9.849577688676681986e-02 7.143323522819421123e-02 4.365094130371244968e-02 -6.834668068834866272e-02 -1.515515324499284652e-02 -9.395084230865270725e-02 1.227544435125478214e-02 1.789616151239425412e-01 -5.843821261480813822e-02 1.778890736875425246e-02 1.984090088202468405e-02 3.190308129723944397e-01 4.208950806059425509e-01 4.091120576150319432e-01 4.420879219087116563e-01 1.670030842288974249e-01 -2.183112867737186380e-01 -3.085256271609372776e-03 1.026175812288945555e-01 3.969357722851781234e-01 5.764404139463279175e-02 7.641083595708306198e-02 -1.768117043300862778e-01 -1.347645841432407732e-01 8.453069537543177192e-02 3.731119041200382097e-02 1.205518782423071616e-01 4.960160243489396270e-02 7.746890606094193610e-02 3.510636442028260834e-02 -9.243367138808102068e-02 -7.671182772679313588e-02 -4.141376808189415476e-02 3.172112327361912426e-02 -9.533830250015473684e-02 -3.485433056885505615e-02 6.501080990635635382e-02 2.800222396372363254e-01 2.197080105360176838e-01 4.490485955433601295e-01 2.370484015799549371e-01 2.975315941389929386e-01 2.205469284230083260e-01 1.836762879848737040e-01 2.513658528235545586e-01 4.795343572676920574e-01 4.633799920244572879e-01 8.891544839290831115e-02 4.806617993627934626e-02 -6.772870065482598789e-02 -2.075334604618964129e-01 -3.164547397077751428e-02 -1.117377582469917807e-01 4.847241047034046846e-02 1.932927519735111177e-01 8.649967237833615374e-02 -1.532032962375610465e-02 -7.616822828194301509e-02 -1.453802264469080396e-01 2.574020050085023409e-02 9.983142068948777648e-02 -2.118731105721543759e-02 2.704581347666125055e-02 -5.563990422466168380e-03 9.080312574433727080e-02 2.607167199742021491e-01 9.174116481811482593e-03 2.964275899434631878e-01 1.011841266556725294e-01 -5.498259664069329172e-02 8.050970116674391330e-02 -1.660036428240237727e-01 1.850275726229301254e-01 2.283300924847596336e-01 2.608114579345255923e-01 -8.831741289221435587e-03 1.501843273185535788e-01 3.014929027983218601e-01 2.306182235692830207e-01 2.604898975172637576e-01 3.171917416657838440e-01 1.992846952735575217e-01 2.435014475588903257e-02 -2.516940716196853708e-02 -1.729864892097786322e-01 -9.314668628085999436e-02 -1.054318541708656742e-01 9.096083814122685185e-02 1.263047147208353482e-01 1.596725982064978178e-01 4.312131193898591230e-02 1.199142376916568636e-01 -6.664831164849387146e-02 5.992214629978906415e-02 -1.022041433740257799e-01 1.472361133081504479e-02 3.063550934278785887e-01 1.755345712314468343e-01 8.262734400418830782e-02 1.816598423631195502e-01 3.375615413550776545e-01 3.006102678220365920e-01 2.250860387044719968e-01 3.662766199829982083e-01 3.310606319800621922e-01 5.950916848557587582e-03 -1.035466237497474074e-01 8.542642879063802597e-02 4.285194210315277918e-01 3.062867301712277612e-01 1.217185941377804392e-01 -1.633374646593676316e-01 4.852576528615690221e-03 5.453048024163108937e-02 3.188388914911084726e-02 -1.434385601034334767e-01 1.822115739998791673e-01 4.420465094534507117e-02 -8.995337810645634424e-02 -7.389292688364559880e-02 -2.292770546023627232e-01 -4.521280418860081918e-01 -4.212853596046819415e-01 -2.234080914831173270e-01 -1.853428866981420287e-01 -2.257705916390744805e-01 -1.777841320825913896e-02 1.841329825786065799e-01 3.376741145494990270e-01 3.181626777073955359e-01 3.829836211730501261e-01 2.183224362308265609e-01 1.483498080483560966e-01 2.994001894362398053e-01 1.258780178879950751e-01 4.678314709835061647e-02 2.833766482761725380e-01 4.825445962236658004e-01 3.374650357234020293e-01 8.587662709754074336e-03 -1.537281076384645340e-01 4.544117442053714068e-02 5.186157652407793334e-02 4.350825805821414288e-02 7.869743954203896330e-02 -7.822460660437860480e-02 -3.731332426475865716e-01 -5.181271636829539728e-01 -1.605979442867401796e-01 -4.157428500719616560e-01 -4.702477520301237557e-01 -5.385737087888137209e-01 -6.212208347319205792e-01 -5.220571219049991996e-01 -1.742961061304063863e-01 1.863175839089344088e-02 4.299222203952839938e-01 5.129836561368805725e-01 1.974763457781561482e-01 7.938737320428097821e-02 4.166724138706588421e-01 4.294701919449314675e-01 2.222377979404892567e-01 1.843015260028148250e-02 4.112968573228683589e-01 5.341472985047021060e-01 2.691173325884834155e-01 1.659634911161963489e-01 1.008334332092062635e-01 6.433324384402326623e-02 5.494074373720733012e-02 -8.410950358549938721e-02 5.816267681940660850e-02 -1.749904724410051016e-01 -3.810360187599036719e-01 -4.290385642865913729e-01 -7.338156935271203940e-01 -4.326633653197302642e-01 -4.513181098958337634e-01 -6.379934400773634717e-01 -5.048809340944335755e-01 -5.154846154419607807e-01 -7.069563468713720988e-01 -2.855605483752209350e-01 -1.046291975789210155e-01 -1.855622420404969830e-01 -3.146843684725031398e-01 -1.584903817288918770e-01 -1.611424345669470182e-01 2.545856831627273387e-01 2.890772173092300834e-01 -5.001098488969207834e-02 2.543191877121107614e-01 2.245201314064633746e-01 1.485779341753884764e-01 -1.506225933720229393e-01 1.634043645454885674e-02 -2.842038075238395925e-02 -1.776922638445998237e-01 -2.968616365139063046e-02 1.681011361757764888e-01 -1.147845762169517059e-01 -1.760485757743413537e-01 -6.775555447706348433e-01 -9.946587510809039578e-01 -6.380806688764280032e-01 -8.129725317719902478e-01 -3.882972817136911003e-01 -3.420994166741630482e-01 -2.053388906447086992e-01 -2.241804230512719487e-01 -1.731798458498815807e-01 -3.537397414439118482e-01 -2.626501150378904303e-01 -8.262408702070974664e-01 -6.477847745357936393e-01 -3.616654345465560860e-01 -3.350281927241239854e-01 -4.609867072425868906e-01 -7.798304867058580836e-01 -2.857400027760799155e-01 2.896071499747303324e-02 -1.420350062634561372e-01 -1.438262791376205829e-01 -3.529942342018767276e-02 3.893587810306761016e-02 1.247516579892944399e-01 1.216875759498432519e-01 7.365850061323121756e-02 -2.344589570434034986e-01 -3.026763533241222381e-01 -6.261723125198981332e-01 -5.876687628542980324e-01 -3.011585216990952940e-01 -3.798253729367432885e-01 1.093592463053905811e-01 9.419759918361425566e-02 2.241901712234002086e-01 2.904371138026629606e-01 3.197580590892596386e-01 -2.691622527939682152e-01 -2.671084998486534801e-01 -6.470631126480926865e-01 -4.153320836992295262e-01 -8.338115541578255963e-02 -2.743032366447518133e-01 -5.490716555286329070e-01 -5.603417743933282180e-01 -1.244461360891709056e-01 -2.068966232017384055e-01 -1.325376148167402290e-01 3.584389428250157883e-02 -1.654671902555782115e-02 -5.569901434252907957e-02 -1.717739941020091921e-01 -9.676379145138447324e-02 -3.965981190424318348e-02 -2.814460681585833624e-01 -1.748832612861885571e-01 -1.124867338817656381e-01 1.227320234461640180e-01 9.426429761880393901e-03 2.876063990230443568e-01 8.004489513088820507e-01 3.502928864168116108e-01 2.065419592971010354e-01 1.409698452837501725e-01 1.051440124968414970e-02 -3.791170411593802747e-01 -1.066083552099382215e-01 -2.480407529720663473e-01 -4.218113301868771092e-01 -5.718750618702790334e-01 -2.918066698635974343e-01 -3.414257878481661845e-01 -2.458871608645205598e-01 -2.846519501694723675e-01 -2.590633175974882407e-02 -8.651203383131293723e-02 -1.477861001058050627e-01 1.194286343738150125e-01 -6.291603941861168003e-02 6.937786541527950213e-02 -1.875757667589265099e-01 5.736713043875523062e-03 8.805542896708863643e-02 -7.270391467491608972e-02 5.134201132572322468e-01 3.014086641464410188e-01 4.586158951226686487e-01 6.179736954693844098e-01 3.370249513798043717e-01 -2.346823887502383355e-01 -3.260538927778229845e-01 -4.834252800686199281e-02 -3.091762990739320149e-01 -3.039067156575968598e-01 -2.520871992233084113e-01 -3.759491206701544019e-01 -4.073396178331127881e-01 -3.038252302247785308e-01 -4.077287868312786112e-01 -3.142800575578618139e-01 1.700187792917467744e-01 1.519481379490146278e-01 -1.577307048978033865e-01 1.348775554068847894e-02 1.335375044598618721e-01 3.262760268245556983e-02 -6.264121137302769947e-03 3.590146374328159057e-02 -1.192428403622913524e-01 1.193156278240583568e-01 8.047382460682268868e-02 1.590732083357629667e-01 5.906761367610315894e-01 4.437136000641047628e-01 5.284617352787110978e-01 4.874603354075477402e-01 8.555329650544141185e-02 -1.274103924685588141e-01 -4.108950950676667352e-02 -7.308404208380452072e-02 -3.136390914406764208e-01 -6.342720238449950365e-01 -5.432857650781758307e-01 -2.382295503298963724e-01 -4.719205378507963511e-01 6.762375139058970919e-02 -1.361380171443565823e-01 -2.066330205793492636e-01 -6.055790576856238255e-02 8.040528509236379018e-02 -4.314748323739565211e-02 1.904472722722634626e-01 -1.016859682199941356e-01 -1.601413005282310287e-01 3.912178584185909552e-02 2.075487591898840800e-01 -8.791370343405748022e-02 -1.214858042812767998e-02 1.780829559910148130e-01 1.957846460625508600e-01 2.695935360516092394e-01 3.942785043827598535e-01 -6.397307172733901481e-02 5.791770512381862190e-02 -2.063690331560403546e-01 -1.726985772597560420e-01 -9.545431419481834046e-02 -2.814315932422036814e-01 -2.970068366120928172e-01 -4.748944979434734370e-01 -4.831656250614572712e-01 2.143307074468286388e-01 1.503228894177099373e-01 5.038917164415688058e-03 -3.840657015336654267e-02 -3.230542064933500379e-02 2.945406867261075035e-01 1.331718444646730615e-01 2.353878737272503963e-01 -1.654624062740204515e-01 -1.887648490615595476e-02 7.074817831498715626e-02 -3.000038042461723731e-02 9.267567619317235161e-02 6.426535335452106257e-02 -5.542855595181548495e-02 4.686562931134162779e-01 4.126501442229422723e-01 3.804618095833651181e-01 3.040779821593735943e-01 -1.648655549715864199e-01 -3.263453248312229160e-01 -3.627923121816645780e-01 -4.611743728752291105e-01 -2.259382536460174673e-01 -3.250729872168416357e-01 -1.585315758512416962e-01 1.142446897015587937e-01 8.095945244259475371e-02 1.763573513906810664e-01 2.924085522702873918e-01 -3.958006853171475332e-03 2.291511807457611571e-01 1.141772959888743277e-01 2.601318520497697961e-01 3.477852820599351413e-01 1.405909572909223582e-01 -1.333700166206746966e-02 -1.628161677558814802e-02 9.116822765477802792e-02 8.314829666716026801e-02 -1.324654481105373427e-01 -3.131907958722501134e-02 2.322940133691865638e-01 5.577034933218564250e-01 5.561013629041705597e-01 5.609263223171964130e-01 -1.208280113333552730e-01 -8.450019621098643630e-02 -2.878400149251041928e-01 -3.301169767064717209e-01 -1.194379024889526408e-01 -1.450192393258245838e-01 -1.169968036593133087e-01 1.399848272883165712e-01 9.630286363654917692e-02 6.903686949765452940e-02 2.480661147884010431e-01 6.239380764203730778e-02 1.924283885831228058e-02 2.075412028155143584e-01 8.054002002240508162e-02 2.849222060131531564e-01 2.115412674626047096e-01 3.978880898869276844e-02 -1.259498906705097329e-02 6.246557910929694327e-03 2.616420309779854958e-01 -1.322709696843166471e-01 -1.819822711361115952e-01 6.707073176142740178e-02 2.174080478099577884e-01 5.973471988165146573e-01 8.034455695539067799e-01 4.307370732704193239e-01 -1.012701330652589771e-01 -2.382714252328353988e-01 3.218411953041414725e-02 -3.393669932029221709e-02 -1.254979689332111903e-01 6.859390190956937694e-02 4.894056884726175061e-02 -9.622554362244870041e-02 2.593442289096334896e-01 1.405029387155115883e-01 1.100644067182795921e-01 -1.653377237726694204e-01 1.206979053297483478e-01 6.251033255211566053e-02 3.998789803755204431e-01 4.775684324058346863e-01 3.076621596894235644e-01 1.388633470768219913e-01 4.526234618777048857e-02 -1.197096972745843452e-01 -1.041618117995466407e-02 -6.022318660195973700e-02 1.051690491585061948e-01 1.660607439269101981e-01 2.161967964415850429e-01 6.326366022688577617e-01 5.351071349388960563e-01 2.584965360533085788e-01 6.087934562779247216e-02 -2.423103719417284141e-02 1.409960588920714797e-01 -1.522836467822095974e-02 1.540837151754915479e-01 3.681152358664563917e-01 -1.283691848705352523e-02 2.124817939656082743e-03 -9.474273047985132257e-02 5.127384919927494011e-02 1.335231778367795830e-01 7.212959519734536695e-02 5.082637938609128186e-02 4.763748996535654284e-02 3.485511866572088002e-01 6.822653469713629848e-01 3.813925513121674826e-01 7.562693826043416501e-02 -4.163014537674098424e-03 7.680232024501836008e-02 -4.465771107895650203e-03 4.996707657962096844e-02 -5.527777697103130640e-03 1.669688998445573447e-01 1.019212799293683774e-01 3.674010456369679045e-01 3.016499245526132467e-01 1.826668007078205702e-01 -1.932508019989377102e-01 1.399457055610958400e-01 -2.024970599724862930e-01 -4.336234712639073785e-01 -2.770214699084355137e-01 -3.038605419242572103e-01 -3.699152270281910737e-01 -3.555611323725848538e-01 -4.528751754143181540e-01 -1.107020990852195658e-01 -1.035253886088874364e-01 6.478111415514220539e-02 1.101999443108507559e-01 1.397974458035442513e-01 2.348178156225384228e-01 5.223896693683911518e-01 6.002075872661969541e-02 -1.302921164644601712e-02 -5.431774519449240196e-02 -3.797420033495815112e-02 -7.511736509379733640e-02 1.750408145481109970e-02 -2.069774592638427141e-02 1.758607893505212960e-01 -1.577717098199641899e-01 1.483613310320147649e-01 1.384243735215580362e-01 1.125198658408887997e-01 1.604850810321853394e-01 9.270197177977894387e-02 1.996422651579813912e-01 -5.382256705695692700e-01 -2.264399229484109766e-01 -1.165390227009896196e-01 -3.711256229195891154e-01 -3.090877873349519300e-02 -3.299667998470156571e-01 -3.156528571372083786e-02 -8.195628394664976335e-02 -1.710089441986778480e-01 -1.010633036877557622e-02 2.937569682772276369e-01 2.014079255479540309e-01 1.860291755810497202e-02 2.368715098966200916e-01 5.384571671829260948e-03 -2.582229143734633345e-02 -4.773467120582941536e-02 -4.690649843117676576e-02 -2.792972454822414616e-02 1.492266132953243285e-01 1.081966389996752848e-01 8.572378495665201881e-02 1.923578819099864279e-01 2.165867900650579863e-03 -1.755455604885459986e-01 -6.755656253476739759e-02 -1.822558921056571524e-01 9.697458818978464679e-02 7.059534506239147078e-02 1.949910876695340745e-01 9.265525449908093569e-02 7.456156125686903835e-02 3.483267612520230677e-02 1.669091225512464582e-02 8.921471636785086035e-02 1.374783105331783828e-02 -4.120853210322861226e-02 1.779572921372025440e-01 1.415679713852053823e-01 -1.486316649686562352e-01 -9.027585723217450633e-03 2.527673679217973257e-01 7.361153428951022759e-02 4.322435557578913068e-02 9.914025638671171425e-02 -4.509756498154710025e-02 9.238150606133078979e-02 4.151485480831081099e-02 1.705315845845058534e-02 6.311594785516091988e-02 -1.250336414118932704e-02 -4.997731405851456310e-02 -1.712813560283951986e-01 -1.494116875939774380e-02 -3.695772704783040902e-02 7.141900491200209311e-02 2.189946792328319736e-01 3.740814189693029701e-01 4.663436892661834698e-01 3.666112885280182199e-01 2.734541183716331370e-01 1.095316853575171723e-01 -5.031091202551117580e-02 1.722876722374943603e-01 3.051674647159571263e-01 -2.416784489589856103e-02 -2.887791730319855810e-01 -1.775573070638209183e-01 -3.302556101892328150e-02 7.408421382510324560e-02 9.968000979411345552e-02 5.086784230335440055e-02 -2.274580995268584566e-02 -7.538679145458075659e-03 -5.886326111485489648e-02 -1.906972840159852634e-02 9.815472086520105055e-02 -1.019468584825793632e-02 2.445203816568718158e-02 4.628215172720628184e-02 2.963470745896115005e-02 -1.350074539361718895e-01 -1.464859107327299015e-01 4.693797223848184680e-02 3.580707542737432969e-01 4.199891915791957309e-01 2.124481671604275812e-01 4.686332314332052884e-01 -6.337351674983499050e-02 4.259951989609925271e-01 2.881317990108676619e-01 2.383327785704795476e-01 4.358491216449208311e-02 -7.791176282771336212e-03 -7.318109760465922597e-02 1.261256378582895077e-01 1.187407897286382047e-01 6.287654907286796546e-02 1.524397409626402633e-01 -6.151735777244501935e-02 9.318053438623975435e-03 1.454458258974712496e-04 9.819708826084237729e-02 -4.796062649073066370e-02 -1.744924653803761327e-01 1.291162255868847676e-02 -1.537727779001412109e-01 -2.464327217500637823e-01 9.515998602423903635e-03 -1.173330335120076479e-01 -2.769507156848887153e-01 -1.766998770453798162e-01 3.933398960065449812e-02 -2.366284214163360752e-02 -8.257197493952579681e-02 -1.491526151192325012e-01 -2.041223496862849540e-01 -6.704592114436917771e-02 -4.222375294680167854e-03 1.008295116772384009e-01 -2.274792990928155983e-02 7.866555346931762560e-02 4.233973289495163161e-02 2.042499148902240658e-01 9.788537561254560815e-02 -1.839908873209266382e-01 -9.281467776502617950e-02 9.195310615466513460e-02 -5.621875336341577989e-03 2.877607984392044002e-02 -4.850194095894416052e-02 1.712861765941961489e-01 1.593387784002162910e-01 3.804651298882173044e-02 -1.942252518750266221e-01 -1.249683087458194203e-01 -3.820271363692225725e-02 -5.780741006005858662e-02 -1.456153324045089403e-01 -6.500228179044087451e-02 -2.509938529710563082e-01 2.792210834654681312e-02 -1.046211133947202582e-01 6.794251142701945856e-02 -3.013476649993021214e-02 -1.052854731685855666e-01 -2.815211104604732964e-02 1.179809104299630040e-01 9.924958156634045361e-03 -1.462604528765299727e-01 -2.918722489403835149e-02 8.682191513466494537e-02 5.098844530056223512e-02 -7.079317432591859804e-02 -2.891684727777127373e-02 -2.075440109848165349e-01 6.464856417598661975e-02 2.557989452407151421e-02
